{"m_LearnRate":0.5,"m_Inputs":[-1.0,-1.0,-1.0,-1.0,-1.0,-1.0,-1.0,-1.0,-1.0,-1.0,-1.0,-1.0,-1.0,-1.0,-1.0,-1.0,-1.0,-1.0,-1.0,-1.0,-1.0,-1.0,-1.0,-1.0,-1.0,-1.0,-1.0],"m_HiddenLayer":[{"m_Bias":1.0,"m_LearnRate":0.5,"m_Inputs":[-1.0,-1.0,-1.0,-1.0,-1.0,-1.0,-1.0,-1.0,-1.0,-1.0,-1.0,-1.0,-1.0,-1.0,-1.0,-1.0,-1.0,-1.0,-1.0,-1.0,-1.0,-1.0,-1.0,-1.0,-1.0,-1.0,-1.0],"m_Weights":[0.5830791570100604,-0.05767915701006063,0.8136776483962968,-0.008279206323385363,0.9851208429899396,0.016663811361891338,-0.705379102354642,-0.5794791570100604,0.2964769725306367,0.8108208970515131,-0.13528063377092038,0.20134907461297917,0.8753208429899396,-0.6192623082807055,-0.4440792082581614,-0.3410791570100609,0.3995194081798265,0.15102079462790236,0.9633208429899396,0.7609208429898573,0.8872208064355948,0.7137429456957118,0.7279208429899395,0.1578208429899392,-0.4336568115148423,0.5853208429899396,0.2738214823012097,-0.5888586189607218],"m_Output":-0.9999291384581796,"m_DesiredOutput":0.0,"m_Error":-3.983511995810361e-9,"m_BackPropagatedError":-2.7315007430733784e-12},{"m_Bias":1.0,"m_LearnRate":0.5,"m_Inputs":[-1.0,-1.0,-1.0,-1.0,-1.0,-1.0,-1.0,-1.0,-1.0,-1.0,-1.0,-1.0,-1.0,-1.0,-1.0,-1.0,-1.0,-1.0,-1.0,-1.0,-1.0,-1.0,-1.0,-1.0,-1.0,-1.0,-1.0],"m_Weights":[0.5834696058613698,-0.05806960586136943,0.8140061532920888,-0.008669624828911944,0.9847303941386303,0.017001005859220074,-0.705769583909492,-0.5798696058613697,0.2968058889189956,0.8104304158519953,-0.13567014988554769,0.20163264436462906,0.8749303941386303,-0.6196629308260159,-0.44446962576699508,-0.34146960586136929,0.39912986691934779,0.15063037533697636,0.9629303941386302,0.7605303941385979,0.8868303798068671,0.7133390996863129,0.7275303941386302,0.15743039413863064,-0.4340608046867023,0.5849303941386302,0.27343064417994336,-0.5892614813184143],"m_Output":-0.9999279753437357,"m_DesiredOutput":0.0,"m_Error":-1.600196978624864e-9,"m_BackPropagatedError":-1.1151615972918296e-12},{"m_Bias":1.0,"m_LearnRate":0.5,"m_Inputs":[-1.0,-1.0,-1.0,-1.0,-1.0,-1.0,-1.0,-1.0,-1.0,-1.0,-1.0,-1.0,-1.0,-1.0,-1.0,-1.0,-1.0,-1.0,-1.0,-1.0,-1.0,-1.0,-1.0,-1.0,-1.0,-1.0,-1.0],"m_Weights":[0.5832156602224956,-0.05781566022249564,0.8137924956381851,-0.008415698927976662,0.9849843397775044,0.01678169652947006,-0.7055156169988751,-0.5796156602224956,0.2965919636214675,0.8106843825314892,-0.1354168108902523,0.20144821225153584,0.8751843397775044,-0.6194023679117942,-0.4442157005143898,-0.34121566022249585,0.3993832222705271,0.1508843017487131,0.9631843397775044,0.7607843397774398,0.887084310991342,0.7136017591970552,0.7277843397775043,0.15768433977750447,-0.43379804945753827,0.5851843397775044,0.27368484300802417,-0.5889994615755109],"m_Output":-0.9999287339778071,"m_DesiredOutput":0.0,"m_Error":-3.150406303962583e-9,"m_BackPropagatedError":-2.172497083449612e-12},{"m_Bias":1.0,"m_LearnRate":0.5,"m_Inputs":[-1.0,-1.0,-1.0,-1.0,-1.0,-1.0,-1.0,-1.0,-1.0,-1.0,-1.0,-1.0,-1.0,-1.0,-1.0,-1.0,-1.0,-1.0,-1.0,-1.0,-1.0,-1.0,-1.0,-1.0,-1.0,-1.0,-1.0],"m_Weights":[0.5838701245913804,-0.05847012459138024,0.8143431304973623,-0.00907011241935247,0.9843298754086196,0.017346896866947824,-0.7061701362006749,-0.5802701245913804,0.2971432883321406,0.8100298639254631,-0.13606971184941994,0.20192352764291084,0.8745298754086196,-0.6200738889676243,-0.44487011233424308,-0.34187012459138008,0.3987302791504018,0.1502298869410441,0.9625298754086196,0.7601298754086383,0.8864298838813725,0.712924834265445,0.7271298754086195,0.15702987540861969,-0.43447522110951067,0.5845298754086196,0.27302972604660549,-0.5896747376582363],"m_Output":-0.9999267623915229,"m_DesiredOutput":0.0,"m_Error":8.456386284575042e-10,"m_BackPropagatedError":5.99183155241153e-13},{"m_Bias":1.0,"m_LearnRate":0.5,"m_Inputs":[-1.0,-1.0,-1.0,-1.0,-1.0,-1.0,-1.0,-1.0,-1.0,-1.0,-1.0,-1.0,-1.0,-1.0,-1.0,-1.0,-1.0,-1.0,-1.0,-1.0,-1.0,-1.0,-1.0,-1.0,-1.0,-1.0,-1.0],"m_Weights":[0.5840211834147986,-0.058621183414798359,0.8144702241288113,-0.009221159495298675,0.9841788165852015,0.017477352433807267,-0.7063212076856906,-0.5804211834147985,0.29727054122951737,0.8098787925780189,-0.1362204098277987,0.20203323661419426,0.8743788165852015,-0.6202288859751197,-0.44502115902407515,-0.3420211834147984,0.39857957143661856,0.1500788395613434,0.9623788165852014,0.7599788165852394,0.8862788336611752,0.7127685897122391,0.7269788165852014,0.1568788165852016,-0.43463152262589879,0.5843788165852014,0.27287851656049086,-0.5898306016123727],"m_Output":-0.9999262996300066,"m_DesiredOutput":0.0,"m_Error":1.768382274493197e-9,"m_BackPropagatedError":1.260870246196018e-12},{"m_Bias":1.0,"m_LearnRate":0.5,"m_Inputs":[-1.0,-1.0,-1.0,-1.0,-1.0,-1.0,-1.0,-1.0,-1.0,-1.0,-1.0,-1.0,-1.0,-1.0,-1.0,-1.0,-1.0,-1.0,-1.0,-1.0,-1.0,-1.0,-1.0,-1.0,-1.0,-1.0,-1.0],"m_Weights":[0.583496871842986,-0.05809687184298584,0.8140290935783443,-0.008696888691008515,0.984703128157014,0.0170245529645337,-0.705796852175385,-0.579896871842986,0.29682885794446525,0.8104031476109214,-0.1356973507328659,0.2016524467260242,0.874903128157014,-0.6196909073809273,-0.4444968895594617,-0.3414968718429856,0.39910266431564969,0.1506031114200393,0.962903128157014,0.7605031281569851,0.8868031153774233,0.7133108980047029,0.7275031281570139,0.1574031281570141,-0.4340890166466048,0.584903128157014,0.2734033510112872,-0.5892896143071007],"m_Output":-0.9999278934110629,"m_DesiredOutput":0.0,"m_Error":-1.4337264922790175e-9,"m_BackPropagatedError":-1.0002798766406836e-12},{"m_Bias":1.0,"m_LearnRate":0.5,"m_Inputs":[-1.0,-1.0,-1.0,-1.0,-1.0,-1.0,-1.0,-1.0,-1.0,-1.0,-1.0,-1.0,-1.0,-1.0,-1.0,-1.0,-1.0,-1.0,-1.0,-1.0,-1.0,-1.0,-1.0,-1.0,-1.0,-1.0,-1.0],"m_Weights":[0.5832091193922686,-0.057809119392268949,0.813786992498025,-0.00840915860607642,0.9849908806077314,0.016776047820647987,-0.7055090756208321,-0.5796091193922686,0.2965864535882144,0.8106909239035801,-0.1354102856853722,0.2014434618687877,0.8751908806077314,-0.6193956566595654,-0.44420916020918418,-0.3412091193922689,0.3993897478966255,0.15089084208377058,0.9631908806077314,0.7607908806076658,0.8870908514493171,0.7136085244472697,0.7277908806077313,0.15769088060773088,-0.43379128174215916,0.5851908806077314,0.2736913903590915,-0.5889927128033543],"m_Output":-0.9999287534118743,"m_DesiredOutput":0.0,"m_Error":-3.1903290902807924e-9,"m_BackPropagatedError":-2.199431116573616e-12},{"m_Bias":1.0,"m_LearnRate":0.5,"m_Inputs":[-1.0,-1.0,-1.0,-1.0,-1.0,-1.0,-1.0,-1.0,-1.0,-1.0,-1.0,-1.0,-1.0,-1.0,-1.0,-1.0,-1.0,-1.0,-1.0,-1.0,-1.0,-1.0,-1.0,-1.0,-1.0,-1.0,-1.0],"m_Weights":[0.5830596548943605,-0.05765965489436061,0.8136612402534995,-0.00825970572311327,0.9851403451056395,0.016646969193722998,-0.7053595986058256,-0.5794596548943605,0.2964605438372367,0.8108404007825855,-0.13526117824415999,0.20133491089103859,0.8753403451056395,-0.6192422980940209,-0.4440597077076519,-0.3410596548943604,0.399538864962301,0.15104029526740768,0.9633403451056395,0.760940345105555,0.8872403074415446,0.7137631168706249,0.7279403451056394,0.1578403451056392,-0.433636632990579,0.5853403451056395,0.27384100385776169,-0.5888384969156782],"m_Output":-0.9999291960582596,"m_DesiredOutput":0.0,"m_Error":-4.102527094645736e-9,"m_BackPropagatedError":-2.810836333050045e-12},{"m_Bias":1.0,"m_LearnRate":0.5,"m_Inputs":[-1.0,-1.0,-1.0,-1.0,-1.0,-1.0,-1.0,-1.0,-1.0,-1.0,-1.0,-1.0,-1.0,-1.0,-1.0,-1.0,-1.0,-1.0,-1.0,-1.0,-1.0,-1.0,-1.0,-1.0,-1.0,-1.0,-1.0],"m_Weights":[0.5842890820851198,-0.05888908208511942,0.8146956211889854,-0.00948903732784517,0.9839109179148803,0.01770871182608756,-0.7065891288160399,-0.5806890820851197,0.2974962207794696,0.8096108716917034,-0.13648766855867859,0.2022278024989648,0.8741109179148803,-0.6205037700885243,-0.4452890361715757,-0.34228908208511929,0.39831229543647297,0.14981096119015473,0.9621109179148802,0.7597109179149525,0.8860109502515525,0.7124914928695173,0.7267109179148802,0.15661091791488067,-0.43490872050689258,0.5841109179148802,0.27261035066110808,-0.5901070234511058],"m_Output":-0.9999254717317793,"m_DesiredOutput":0.0,"m_Error":3.405216513543469e-9,"m_BackPropagatedError":2.455058545078362e-12},{"m_Bias":1.0,"m_LearnRate":0.5,"m_Inputs":[-1.0,-1.0,-1.0,-1.0,-1.0,-1.0,-1.0,-1.0,-1.0,-1.0,-1.0,-1.0,-1.0,-1.0,-1.0,-1.0,-1.0,-1.0,-1.0,-1.0,-1.0,-1.0,-1.0,-1.0,-1.0,-1.0,-1.0],"m_Weights":[0.5845481530670944,-0.05914815306709431,0.8149135910552565,-0.009748088153869407,0.9836518469329056,0.017932447594967497,-0.7068482215240745,-0.5809481530670944,0.2977144638706934,0.809351779219728,-0.13674612069956586,0.20241595717649028,0.8738518469329056,-0.6207695977702401,-0.4455480863347851,-0.34254815306709449,0.39805382659075169,0.14955190984330858,0.9618518469329056,0.7594518469330109,0.8857518940312108,0.7122235250778143,0.7264518469329055,0.15635184693290583,-0.43517678602651807,0.5838518469329056,0.272351021215831,-0.5903743384542334],"m_Output":-0.9999246622691512,"m_DesiredOutput":0.0,"m_Error":4.988569284130633e-9,"m_BackPropagatedError":3.635440785595604e-12},{"m_Bias":1.0,"m_LearnRate":0.5,"m_Inputs":[-1.0,-1.0,-1.0,-1.0,-1.0,-1.0,-1.0,-1.0,-1.0,-1.0,-1.0,-1.0,-1.0,-1.0,-1.0,-1.0,-1.0,-1.0,-1.0,-1.0,-1.0,-1.0,-1.0,-1.0,-1.0,-1.0,-1.0],"m_Weights":[0.5840234028692333,-0.05862340286923322,0.8144720914710638,-0.009223378777120085,0.9841765971307668,0.01747926917189721,-0.7063234273261729,-0.5804234028692332,0.297272410911917,0.809876572939558,-0.136222623980492,0.2020348485298432,0.8743765971307668,-0.6202311632954969,-0.4450233783002226,-0.3420234028692334,0.398577357140875,0.15007662027505909,0.9623765971307667,0.7599765971308049,0.886276614333154,0.7127662940613783,0.7269765971307667,0.15687659713076675,-0.43463381911374757,0.5843765971307667,0.27287629489232176,-0.5898328916711583],"m_Output":-0.9999262928090607,"m_DesiredOutput":0.0,"m_Error":1.7819409566390305e-9,"m_BackPropagatedError":1.2706545891550883e-12},{"m_Bias":1.0,"m_LearnRate":0.5,"m_Inputs":[-1.0,-1.0,-1.0,-1.0,-1.0,-1.0,-1.0,-1.0,-1.0,-1.0,-1.0,-1.0,-1.0,-1.0,-1.0,-1.0,-1.0,-1.0,-1.0,-1.0,-1.0,-1.0,-1.0,-1.0,-1.0,-1.0,-1.0],"m_Weights":[0.5834234615856383,-0.05802346158563825,0.8139673297166199,-0.008623484140084665,0.9847765384143618,0.016961155319101963,-0.7057234357680584,-0.5798234615856382,0.29676701670708646,0.8104765639514271,-0.13562411584178006,0.20159913133716693,0.8749765384143617,-0.6196155840291773,-0.44442348519599936,-0.341423461585638,0.3991759039354551,0.15067651611861578,0.9629765384143617,0.7605765384143234,0.886876521455834,0.7133868274747564,0.7275765384143617,0.15747653841436153,-0.43401305950400057,0.5849765384143617,0.273476834465347,-0.5892138697835363],"m_Output":-0.9999281137925126,"m_DesiredOutput":0.0,"m_Error":-1.8819162632101164e-9,"m_BackPropagatedError":-1.3089827718297834e-12},{"m_Bias":1.0,"m_LearnRate":0.5,"m_Inputs":[-1.0,-1.0,-1.0,-1.0,-1.0,-1.0,-1.0,-1.0,-1.0,-1.0,-1.0,-1.0,-1.0,-1.0,-1.0,-1.0,-1.0,-1.0,-1.0,-1.0,-1.0,-1.0,-1.0,-1.0,-1.0,-1.0,-1.0],"m_Weights":[0.5832123281072599,-0.05781232810725979,0.813789692156588,-0.008412367071699484,0.9849876718927402,0.016778818890378908,-0.7055122846045633,-0.5796123281072598,0.29658915662829696,0.8106877149227689,-0.1354134867350839,0.20144579224945523,0.8751876718927402,-0.6193989489778421,-0.44421236866661736,-0.3412123281072596,0.3993865466402787,0.15088763361169306,0.9631876718927401,0.7607876718926749,0.88708764291694,0.7136052056393906,0.7277876718927401,0.15768767189274017,-0.4337946017593652,0.5851876718927401,0.2736881784451954,-0.5889960235276451],"m_Output":-0.999928743878826,"m_DesiredOutput":0.0,"m_Error":-3.1707443271812948e-9,"m_BackPropagatedError":-2.186220040326397e-12},{"m_Bias":1.0,"m_LearnRate":0.5,"m_Inputs":[-1.0,-1.0,-1.0,-1.0,-1.0,-1.0,-1.0,-1.0,-1.0,-1.0,-1.0,-1.0,-1.0,-1.0,-1.0,-1.0,-1.0,-1.0,-1.0,-1.0,-1.0,-1.0,-1.0,-1.0,-1.0,-1.0,-1.0],"m_Weights":[0.582552454464714,-0.05715245446471408,0.8132345061885551,-0.007752544696496461,0.985647545535286,0.01620894731077314,-0.7048523557149227,-0.578952454464714,0.2960332753907689,0.811347643212136,-0.13475518949653704,0.2009665486044209,0.875847545535286,-0.6187218868379704,-0.443552547974567,-0.34055245446471418,0.40004488635883209,0.15154745731451806,0.963847545535286,0.7614475455351366,0.8877474790168276,0.7142877144479315,0.7284475455352859,0.158347545535286,-0.43311184431251406,0.585847545535286,0.2743487098145333,-0.5883151770316799],"m_Output":-0.999930677756284,"m_DesiredOutput":0.0,"m_Error":-7.196919664363576e-9,"m_BackPropagatedError":-4.8283605826150584e-12},{"m_Bias":1.0,"m_LearnRate":0.5,"m_Inputs":[-1.0,-1.0,-1.0,-1.0,-1.0,-1.0,-1.0,-1.0,-1.0,-1.0,-1.0,-1.0,-1.0,-1.0,-1.0,-1.0,-1.0,-1.0,-1.0,-1.0,-1.0,-1.0,-1.0,-1.0,-1.0,-1.0,-1.0],"m_Weights":[0.5826114858582929,-0.05721148585829251,0.813284172366151,-0.007811571505015882,0.9855885141417071,0.016259927232714596,-0.7049113920492443,-0.5790114858582929,0.29608300375460136,0.8112886069314967,-0.1348140798642227,0.2010094210723605,0.8757885141417071,-0.6187824555182941,-0.4436115746326024,-0.3406114858582925,0.39998599219213917,0.15148843038721308,0.9637885141417071,0.7613885141415652,0.8876884509807796,0.7142266585921562,0.728388514141707,0.15828851414170742,-0.43317292240620156,0.5857885141417071,0.27428961959225325,-0.5883760841858052],"m_Output":-0.9999305069133905,"m_DesiredOutput":0.0,"m_Error":-6.836861327381017e-9,"m_BackPropagatedError":-4.5980379180288365e-12},{"m_Bias":1.0,"m_LearnRate":0.5,"m_Inputs":[-1.0,-1.0,-1.0,-1.0,-1.0,-1.0,-1.0,-1.0,-1.0,-1.0,-1.0,-1.0,-1.0,-1.0,-1.0,-1.0,-1.0,-1.0,-1.0,-1.0,-1.0,-1.0,-1.0,-1.0,-1.0,-1.0,-1.0],"m_Weights":[0.5846687895950246,-0.059268789595025319,0.8150150888283078,-0.009868715294556395,0.9835312104049755,0.018036630276334638,-0.7069688681708111,-0.5810687895950245,0.2978160888856713,0.8092311326829349,-0.13686646906764578,0.20250357150931554,0.8737312104049755,-0.6208933810413723,-0.44566871316671677,-0.3426687895950255,0.397933470442508,0.14943128246012428,0.9617312104049755,0.7593312104050962,0.8856312643783177,0.7120987451648747,0.7263312104049754,0.15623121040497477,-0.4353016114528974,0.5837312104049754,0.27223026432101846,-0.5904988143866926],"m_Output":-0.9999242823479656,"m_DesiredOutput":0.0,"m_Error":5.7260109408411758e-9,"m_BackPropagatedError":4.193773818930025e-12},{"m_Bias":1.0,"m_LearnRate":0.5,"m_Inputs":[-1.0,-1.0,-1.0,-1.0,-1.0,-1.0,-1.0,-1.0,-1.0,-1.0,-1.0,-1.0,-1.0,-1.0,-1.0,-1.0,-1.0,-1.0,-1.0,-1.0,-1.0,-1.0,-1.0,-1.0,-1.0,-1.0,-1.0],"m_Weights":[0.5844829608395226,-0.059082960839522569,0.8148587414500139,-0.009682900998756258,0.9837170391604775,0.017876147063182938,-0.7067830238288229,-0.5808829608395225,0.2976595455075079,0.8094169768555719,-0.13668108419517503,0.20236861021531753,0.8739170391604775,-0.6207027051638515,-0.4454828993464936,-0.34248296083952287,0.3981188672991492,0.14961709712947372,0.9619170391604774,0.7595170391605745,0.8858170825438362,0.7122909562454143,0.7265170391604774,0.15641703916047729,-0.4351093302650507,0.5839170391604774,0.2724162784863944,-0.5903070715558786],"m_Output":-0.9999248667852375,"m_DesiredOutput":0.0,"m_Error":4.590094681066499e-9,"m_BackPropagatedError":3.336023367792306e-12},{"m_Bias":1.0,"m_LearnRate":0.5,"m_Inputs":[-1.0,-1.0,-1.0,-1.0,-1.0,-1.0,-1.0,-1.0,-1.0,-1.0,-1.0,-1.0,-1.0,-1.0,-1.0,-1.0,-1.0,-1.0,-1.0,-1.0,-1.0,-1.0,-1.0,-1.0,-1.0,-1.0,-1.0],"m_Weights":[0.5849432740344516,-0.05954327403445124,0.8152460268341244,-0.010143178371347393,0.9832567259655485,0.018273677287920347,-0.7072433756384406,-0.5813432740344515,0.29804731643962487,0.8089566254655125,-0.13714029786560653,0.20270292054632517,0.8734567259655485,-0.621175026412738,-0.4459431755407227,-0.3429432740344512,0.3976596239386599,0.14915681883163538,0.9614567259655484,0.7590567259657042,0.8853567955846915,0.7118148318997442,0.7260567259655484,0.15595672596554878,-0.4355856282899333,0.5834567259655484,0.27195550597927578,-0.5907820359827467],"m_Output":-0.9999234107580386,"m_DesiredOutput":0.0,"m_Error":7.404274486450881e-9,"m_BackPropagatedError":5.485001456822335e-12},{"m_Bias":1.0,"m_LearnRate":0.5,"m_Inputs":[-1.0,-1.0,-1.0,-1.0,-1.0,-1.0,-1.0,-1.0,-1.0,-1.0,-1.0,-1.0,-1.0,-1.0,-1.0,-1.0,-1.0,-1.0,-1.0,-1.0,-1.0,-1.0,-1.0,-1.0,-1.0,-1.0,-1.0],"m_Weights":[0.5843051066765514,-0.05890510667655179,0.8147091035096822,-0.009505060672687518,0.9838948933234486,0.017722550790149225,-0.7066051547511419,-0.5807051066765514,0.29750971999899436,0.8095948457712007,-0.13650365487195557,0.20223944062782754,0.8740948933234486,-0.6205202125682169,-0.44530505947543039,-0.3423051066765517,0.39829630809006597,0.14979493781309537,0.9620948933234486,0.7596948933235228,0.8859949265730791,0.7124749180237162,0.7266948933234485,0.15659489332344826,-0.4349253013970199,0.5840948933234486,0.2725943100838069,-0.5901235579200593],"m_Output":-0.9999254219165568,"m_DesiredOutput":0.0,"m_Error":3.5031403290412196e-9,"m_BackPropagatedError":2.527336916965933e-12},{"m_Bias":1.0,"m_LearnRate":0.5,"m_Inputs":[-1.0,-1.0,-1.0,-1.0,-1.0,-1.0,-1.0,-1.0,-1.0,-1.0,-1.0,-1.0,-1.0,-1.0,-1.0,-1.0,-1.0,-1.0,-1.0,-1.0,-1.0,-1.0,-1.0,-1.0,-1.0,-1.0,-1.0],"m_Weights":[0.5847763509662802,-0.059376350966280997,0.8151055857930547,-0.009976268295135826,0.9834236490337198,0.018129521153285725,-0.707076438565251,-0.5811763509662802,0.2979066993090628,0.8091235623865339,-0.13697377351321234,0.20258168979565373,0.8736236490337198,-0.6210037483556627,-0.445776265891943,-0.342776350966281,0.39782615905919818,0.14932372924334315,0.9616236490337198,0.7592236490338544,0.8855237091376337,0.7119874891766962,0.7262236490337197,0.1561236490337189,-0.4354129080249754,0.5836236490337198,0.2721225956216974,-0.5906097993362837],"m_Output":-0.9999239419889304,"m_DesiredOutput":0.0,"m_Error":6.383607024915219e-9,"m_BackPropagatedError":4.696294789203496e-12},{"m_Bias":1.0,"m_LearnRate":0.5,"m_Inputs":[-1.0,-1.0,-1.0,-1.0,-1.0,-1.0,-1.0,-1.0,-1.0,-1.0,-1.0,-1.0,-1.0,-1.0,-1.0,-1.0,-1.0,-1.0,-1.0,-1.0,-1.0,-1.0,-1.0,-1.0,-1.0,-1.0,-1.0],"m_Weights":[0.5847128999084015,-0.059312899908401228,0.8150522011245842,-0.009912822175263835,0.9834871000915986,0.018074724301752496,-0.7070129821844196,-0.5811128999084014,0.29785324770981166,0.8091870187095304,-0.13691047401700943,0.20253560737817598,0.8736871000915986,-0.6209386420267015,-0.4457128199345105,-0.3427128999084014,0.3978894626481095,0.1493871754907523,0.9616871000915985,0.759287100091725,0.8855871565789757,0.7120531197454071,0.7262871000915985,0.1561871000915988,-0.4353472535152029,0.5836871000915985,0.272186109993817,-0.5905443286553258],"m_Output":-0.9999241429532739,"m_DesiredOutput":0.0,"m_Error":5.995678063519856e-9,"m_BackPropagatedError":4.399316758110866e-12},{"m_Bias":1.0,"m_LearnRate":0.5,"m_Inputs":[-1.0,-1.0,-1.0,-1.0,-1.0,-1.0,-1.0,-1.0,-1.0,-1.0,-1.0,-1.0,-1.0,-1.0,-1.0,-1.0,-1.0,-1.0,-1.0,-1.0,-1.0,-1.0,-1.0,-1.0,-1.0,-1.0,-1.0],"m_Weights":[0.5848834069689218,-0.05948340696892212,0.8151956575646873,-0.0100833159656188,0.9833165930310782,0.018221975595989205,-0.707183503549714,-0.5812834069689218,0.2979968840135491,0.8090164974996608,-0.13708057379921485,0.20265944105752657,0.8735165930310782,-0.6211135973600639,-0.4458833132883092,-0.34288340696892236,0.3977193518672702,0.1492166813576864,0.9615165930310782,0.7591165930312263,0.8854166592373997,0.7118767556243112,0.7261165930310781,0.1560165930310778,-0.43552368197378429,0.5835165930310782,0.27201543278861725,-0.5907202631188789],"m_Output":-0.9999236017097601,"m_DesiredOutput":0.0,"m_Error":7.0381900685125788e-9,"m_BackPropagatedError":5.200887650427765e-12},{"m_Bias":1.0,"m_LearnRate":0.5,"m_Inputs":[-1.0,-1.0,-1.0,-1.0,-1.0,-1.0,-1.0,-1.0,-1.0,-1.0,-1.0,-1.0,-1.0,-1.0,-1.0,-1.0,-1.0,-1.0,-1.0,-1.0,-1.0,-1.0,-1.0,-1.0,-1.0,-1.0,-1.0],"m_Weights":[0.5826750823824726,-0.057275082382472027,0.8133376794252013,-0.007875163089281505,0.9855249176175275,0.016314849635433866,-0.704974993896603,-0.5790750823824725,0.296136577811557,0.8112250051419757,-0.1348775244570686,0.20105560904031026,0.8757249176175275,-0.618847708295597,-0.4436751660547275,-0.3406750823824719,0.39992254350623088,0.15142483867498,0.9637249176175274,0.7613249176173937,0.8876248580739978,0.7141608809474804,0.7283249176175274,0.15822491761752817,-0.43323872400961996,0.5857249176175274,0.2742259596875703,-0.5884417016277151],"m_Output":-0.9999303223873385,"m_DesiredOutput":0.0,"m_Error":-6.448932365987617e-9,"m_BackPropagatedError":-4.3485905798403585e-12},{"m_Bias":1.0,"m_LearnRate":0.5,"m_Inputs":[-1.0,-1.0,-1.0,-1.0,-1.0,-1.0,-1.0,-1.0,-1.0,-1.0,-1.0,-1.0,-1.0,-1.0,-1.0,-1.0,-1.0,-1.0,-1.0,-1.0,-1.0,-1.0,-1.0,-1.0,-1.0,-1.0,-1.0],"m_Weights":[0.5840252524104935,-0.058625252410493777,0.8144736475861559,-0.009225228174536063,0.9841747475895065,0.01748086645009846,-0.7063252770224728,-0.5804252524104935,0.2972739689771303,0.8098747232449425,-0.13622446910364487,0.20203619178990779,0.8743747475895065,-0.6202330610583481,-0.44502522769291028,-0.34202525241049389,0.39857551189851339,0.1500747708739242,0.9623747475895065,0.759974747589545,0.8862747648972387,0.7127643810231418,0.7269747475895064,0.15687474758950629,-0.4346357328494736,0.5843747475895065,0.27287444350628456,-0.5898348000493411],"m_Output":-0.9999262871244694,"m_DesiredOutput":0.0,"m_Error":1.7932398584272252e-9,"m_BackPropagatedError":1.2788095752446621e-12},{"m_Bias":1.0,"m_LearnRate":0.5,"m_Inputs":[-1.0,-1.0,-1.0,-1.0,-1.0,-1.0,-1.0,-1.0,-1.0,-1.0,-1.0,-1.0,-1.0,-1.0,-1.0,-1.0,-1.0,-1.0,-1.0,-1.0,-1.0,-1.0,-1.0,-1.0,-1.0,-1.0,-1.0],"m_Weights":[0.5838903494188156,-0.05849034941881536,0.814360146694825,-0.009090335674045916,0.9843096505811845,0.01736436318342656,-0.7061903627232159,-0.5802903494188155,0.2971603258524042,0.8100096374213398,-0.13608988836414025,0.20193821625770215,0.8745096505811845,-0.6200946410392372,-0.4448903355372476,-0.3418903494188157,0.39871010133232528,0.15020966364568037,0.9625096505811844,0.7601096505812057,0.886409660205724,0.712903915169245,0.7271096505811844,0.15700965058118469,-0.4344961478319778,0.5845096505811844,0.2730094810481566,-0.5896956057976469],"m_Output":-0.9999267006026124,"m_DesiredOutput":0.0,"m_Error":9.691732880083849e-10,"m_BackPropagatedError":6.872904655236406e-13},{"m_Bias":1.0,"m_LearnRate":0.5,"m_Inputs":[-1.0,-1.0,-1.0,-1.0,-1.0,-1.0,-1.0,-1.0,-1.0,-1.0,-1.0,-1.0,-1.0,-1.0,-1.0,-1.0,-1.0,-1.0,-1.0,-1.0,-1.0,-1.0,-1.0,-1.0,-1.0,-1.0,-1.0],"m_Weights":[0.5837402557786692,-0.05834025577866861,0.8142338651218289,-0.008940253704932405,0.9844597442213309,0.017234741167173857,-0.706040256504127,-0.5801402557786691,0.29703388604370359,0.8101597435037552,-0.13594015326667847,0.20182920828088445,0.8746597442213309,-0.6199406347897807,-0.44474025395168306,-0.3417402557786687,0.39885984610166527,0.15035974591662777,0.9626597442213308,0.7602597442213329,0.8865597452987071,0.7130591609091789,0.7272597442213308,0.15715974422133129,-0.434340845498273,0.5846597442213308,0.27315972437683508,-0.5895407382173545],"m_Output":-0.999927157914742,"m_DesiredOutput":0.0,"m_Error":5.24557229266842e-11,"m_BackPropagatedError":3.69683163132292e-14},{"m_Bias":1.0,"m_LearnRate":0.5,"m_Inputs":[-1.0,-1.0,-1.0,-1.0,-1.0,-1.0,-1.0,-1.0,-1.0,-1.0,-1.0,-1.0,-1.0,-1.0,-1.0,-1.0,-1.0,-1.0,-1.0,-1.0,-1.0,-1.0,-1.0,-1.0,-1.0,-1.0,-1.0],"m_Weights":[0.5829296713534499,-0.0575296713534493,0.8135518783496032,-0.008129732281996202,0.9852703286465502,0.016534714473221129,-0.7052296041809,-0.5793296713534498,0.29635104496787209,0.8109703950892533,-0.13513150522477899,0.20124050828266014,0.8754703286465502,-0.6191089284137237,-0.4439297345981589,-0.34092967135344889,0.399668546350483,0.15117026897002809,0.9634703286465501,0.761070328646449,0.8873702835863997,0.7138975595117818,0.7280703286465501,0.15797032864655084,-0.43350214136797557,0.5854703286465501,0.2739711169680773,-0.5887043817263562],"m_Output":-0.9999295787742708,"m_DesiredOutput":0.0,"m_Error":-4.895710000175025e-9,"m_BackPropagatedError":-3.336258653245374e-12},{"m_Bias":1.0,"m_LearnRate":0.5,"m_Inputs":[-1.0,-1.0,-1.0,-1.0,-1.0,-1.0,-1.0,-1.0,-1.0,-1.0,-1.0,-1.0,-1.0,-1.0,-1.0,-1.0,-1.0,-1.0,-1.0,-1.0,-1.0,-1.0,-1.0,-1.0,-1.0,-1.0,-1.0],"m_Weights":[0.5831370437620203,-0.05773704376202067,0.8137263515270876,-0.008337088577050144,0.9850629562379798,0.016713802780826939,-0.7054369939542666,-0.5795370437620202,0.296525736661792,0.8107630055045596,-0.13533838223659507,0.2013911157896138,0.8752629562379798,-0.6193217031509666,-0.4441370903641077,-0.3411370437620207,0.3994616559867547,0.15096291225778689,0.9632629562379798,0.7608629562379049,0.8871629229777526,0.7136830729658537,0.7278629562379797,0.15776295623797935,-0.4337167060598788,0.5852629562379798,0.2737635378430076,-0.58891834586102],"m_Output":-0.9999289672117996,"m_DesiredOutput":0.0,"m_Error":-3.6302329999002615e-9,"m_BackPropagatedError":-2.4952370955620663e-12},{"m_Bias":1.0,"m_LearnRate":0.5,"m_Inputs":[-1.0,-1.0,-1.0,-1.0,-1.0,-1.0,-1.0,-1.0,-1.0,-1.0,-1.0,-1.0,-1.0,-1.0,-1.0,-1.0,-1.0,-1.0,-1.0,-1.0,-1.0,-1.0,-1.0,-1.0,-1.0,-1.0,-1.0],"m_Weights":[0.58264877988797,-0.05724877988796964,0.8133155497704072,-0.007848862637882143,0.98555122011203,0.01629213461708665,-0.7049486892004758,-0.57904877988797,0.2961144204471902,0.8112513098141817,-0.1348512847988287,0.20103650644293007,0.87575122011203,-0.618820720791267,-0.44364886567038927,-0.3406487798879696,0.3999487848573283,0.151451139179304,0.96375122011203,0.7613512201118929,0.8876511590723757,0.7141880855305762,0.7283512201120299,0.15825122011203036,-0.43321150951743955,0.58575122011203,0.27425228839551937,-0.5884145633020747],"m_Output":-0.9999303987636787,"m_DesiredOutput":0.0,"m_Error":-6.609376771379458e-9,"m_BackPropagatedError":-4.451923442979932e-12},{"m_Bias":1.0,"m_LearnRate":0.5,"m_Inputs":[-1.0,-1.0,-1.0,-1.0,-1.0,-1.0,-1.0,-1.0,-1.0,-1.0,-1.0,-1.0,-1.0,-1.0,-1.0,-1.0,-1.0,-1.0,-1.0,-1.0,-1.0,-1.0,-1.0,-1.0,-1.0,-1.0,-1.0],"m_Weights":[0.5843341967577783,-0.05893419675777796,0.8147335785052293,-0.009534148490882865,0.9838658032422217,0.017747673215024116,-0.7066342472716459,-0.5807341967577783,0.2975342256720795,0.8095657532772002,-0.13653267546542537,0.20226056778872265,0.8740658032422217,-0.6205500612725295,-0.44533414721921529,-0.3423341967577782,0.3982672856210692,0.1497658499364161,0.9620658032422217,0.7596658032422997,0.8859658381492189,0.7124448290270947,0.7266658032422216,0.15656580324222209,-0.43495540136633017,0.5840658032422217,0.2725651909824109,-0.5901535736187168],"m_Output":-0.9999253313998843,"m_DesiredOutput":0.0,"m_Error":3.680909717175607e-9,"m_BackPropagatedError":2.6587926461460275e-12},{"m_Bias":1.0,"m_LearnRate":0.5,"m_Inputs":[-1.0,-1.0,-1.0,-1.0,-1.0,-1.0,-1.0,-1.0,-1.0,-1.0,-1.0,-1.0,-1.0,-1.0,-1.0,-1.0,-1.0,-1.0,-1.0,-1.0,-1.0,-1.0,-1.0,-1.0,-1.0,-1.0,-1.0],"m_Weights":[0.583488605771222,-0.058088605771221737,0.8140221389029134,-0.008688623261812662,0.9847113942287781,0.01701741432319293,-0.7057885854111029,-0.5798886057712219,0.2968218945562806,0.8104114143676793,-0.1356891044074817,0.2016464433572749,0.8749113942287781,-0.6196824258870677,-0.4444886241513758,-0.34148860577122189,0.3991109111735107,0.15061137686586066,0.962911394228778,0.7605113942287483,0.8868113809786199,0.7133194477492743,0.727511394228778,0.15741139422877818,-0.43408046378600098,0.584911394228778,0.2734116253252369,-0.5892810853877998],"m_Output":-0.9999279182599636,"m_DesiredOutput":0.0,"m_Error":-1.4841949202662219e-9,"m_BackPropagatedError":-1.0351358518304394e-12},{"m_Bias":1.0,"m_LearnRate":0.5,"m_Inputs":[-1.0,-1.0,-1.0,-1.0,-1.0,-1.0,-1.0,-1.0,-1.0,-1.0,-1.0,-1.0,-1.0,-1.0,-1.0,-1.0,-1.0,-1.0,-1.0,-1.0,-1.0,-1.0,-1.0,-1.0,-1.0,-1.0,-1.0],"m_Weights":[0.5833933555135606,-0.05799335551356129,0.8139419999147408,-0.00859338040814322,0.9848066444864394,0.01693515549172921,-0.7056933271739699,-0.5797933555135606,0.2967416551739072,0.8105066725181134,-0.13559408168892085,0.2015772663156522,0.8750066444864394,-0.6195846934161734,-0.4443933815409295,-0.3413933555135616,0.39920594002749,0.15070661991111246,0.9630066444864394,0.7606066444863971,0.8869066258141858,0.7134179666545231,0.7276066444864393,0.15750664448643865,-0.4339819089759571,0.5850066444864394,0.2735069705549948,-0.589182806451055],"m_Output":-0.9999282039776335,"m_DesiredOutput":0.0,"m_Error":-2.0657117322978065e-9,"m_BackPropagatedError":-1.4350312513993611e-12},{"m_Bias":1.0,"m_LearnRate":0.5,"m_Inputs":[-1.0,-1.0,-1.0,-1.0,-1.0,-1.0,-1.0,-1.0,-1.0,-1.0,-1.0,-1.0,-1.0,-1.0,-1.0,-1.0,-1.0,-1.0,-1.0,-1.0,-1.0,-1.0,-1.0,-1.0,-1.0,-1.0,-1.0],"m_Weights":[0.5824976185584944,-0.057097618558494208,0.8131883698923621,-0.00769771304924614,0.9857023814415057,0.016161590642689667,-0.704797515219388,-0.5788976185584943,0.2959870813301019,0.8114024836578064,-0.13470048459371726,0.20092672317676145,0.8759023814415057,-0.6186656229688503,-0.44349771646708949,-0.3404976185584941,0.4000995947904454,0.15160228907211455,0.9639023814415056,0.7615023814413493,0.8878023118043169,0.7143444308545135,0.7285023814415056,0.15840238144150568,-0.43305510724938187,0.5859023814415056,0.27440360036649327,-0.5882585987570614],"m_Output":-0.9999308360806697,"m_DesiredOutput":0.0,"m_Error":-7.531367157292943e-9,"m_BackPropagatedError":-5.041266484889753e-12},{"m_Bias":1.0,"m_LearnRate":0.5,"m_Inputs":[-1.0,-1.0,-1.0,-1.0,-1.0,-1.0,-1.0,-1.0,-1.0,-1.0,-1.0,-1.0,-1.0,-1.0,-1.0,-1.0,-1.0,-1.0,-1.0,-1.0,-1.0,-1.0,-1.0,-1.0,-1.0,-1.0,-1.0],"m_Weights":[0.5837036227899559,-0.05830362278995644,0.8142030438862169,-0.008903623564499818,0.9844963772100441,0.017203104639688085,-0.7060036204456084,-0.5801036227899559,0.29700302619009508,0.8101963795289197,-0.13590360778717268,0.20180260297230064,0.8746963772100441,-0.6199030469320523,-0.4447036239048452,-0.3417036227899565,0.3988963939415313,0.15039637613073196,0.9626963772100441,0.7602963772100415,0.8865963762015255,0.7130970512716269,0.727296377210044,0.15719637721004368,-0.4343029413240747,0.5846963772100441,0.2731963938976459,-0.5895029401500848],"m_Output":-0.9999272690959227,"m_DesiredOutput":0.0,"m_Error":-1.7126253247939938e-10,"m_BackPropagatedError":-1.2051460001580154e-13},{"m_Bias":1.0,"m_LearnRate":0.5,"m_Inputs":[-1.0,-1.0,-1.0,-1.0,-1.0,-1.0,-1.0,-1.0,-1.0,-1.0,-1.0,-1.0,-1.0,-1.0,-1.0,-1.0,-1.0,-1.0,-1.0,-1.0,-1.0,-1.0,-1.0,-1.0,-1.0,-1.0,-1.0],"m_Weights":[0.5832452784930622,-0.05784527849306234,0.8138174150273986,-0.008445314896695585,0.9849547215069379,0.016807275084857129,-0.705545237750117,-0.5796452784930621,0.29661691422441996,0.8106547618072006,-0.13544635840601544,0.2014697229954658,0.8751547215069379,-0.6194327579006982,-0.44424531640750938,-0.3412452784930626,0.3993536728473633,0.15085468572041473,0.9631547215069378,0.7607547215068768,0.887054694406441,0.7135711246914872,0.7277547215069378,0.15765472150693778,-0.43382869512604446,0.5851547215069378,0.27365519520938627,-0.5890300214647259],"m_Output":-0.9999286459098409,"m_DesiredOutput":0.0,"m_Error":-2.9696238753518215e-9,"m_BackPropagatedError":-2.0503466452612193e-12},{"m_Bias":1.0,"m_LearnRate":0.5,"m_Inputs":[-1.0,-1.0,-1.0,-1.0,-1.0,-1.0,-1.0,-1.0,-1.0,-1.0,-1.0,-1.0,-1.0,-1.0,-1.0,-1.0,-1.0,-1.0,-1.0,-1.0,-1.0,-1.0,-1.0,-1.0,-1.0,-1.0,-1.0],"m_Weights":[0.5835679323142856,-0.058167932314286439,0.8140888804429638,-0.008767943638180598,0.9846320676857144,0.01708592132010751,-0.7058679186002693,-0.5799679323142856,0.29688871971135108,0.8103320812507243,-0.13576824145204934,0.20170405554843033,0.8748320676857144,-0.6197638198184707,-0.4445679443251471,-0.34156793231428669,0.39903176901876155,0.150532056329946,0.9628320676857144,0.7604320676856946,0.8867320589515829,0.7132373988280245,0.7274320676857143,0.1573320676857136,-0.4341625426114949,0.5848320676857144,0.2733322196831829,-0.589362934455274],"m_Output":-0.9999276794402372,"m_DesiredOutput":0.0,"m_Error":-9.99848663612871e-10,"m_BackPropagatedError":-6.99630566145541e-13},{"m_Bias":1.0,"m_LearnRate":0.5,"m_Inputs":[-1.0,-1.0,-1.0,-1.0,-1.0,-1.0,-1.0,-1.0,-1.0,-1.0,-1.0,-1.0,-1.0,-1.0,-1.0,-1.0,-1.0,-1.0,-1.0,-1.0,-1.0,-1.0,-1.0,-1.0,-1.0,-1.0,-1.0],"m_Weights":[0.5839267283215336,-0.058526728321533719,0.8143907541545796,-0.009126711747761958,0.9842732716784665,0.01739578028409845,-0.7062267446750558,-0.5803267283215335,0.29719097166667748,0.8099732555026293,-0.13612618036574215,0.20196463703707946,0.8744732716784665,-0.6201319683309168,-0.44492671151798388,-0.34192672832153378,0.398673806986276,0.15017328749881082,0.9624732716784664,0.7600732716784924,0.8863732833748105,0.7128662874418402,0.7270732716784664,0.15697327167846618,-0.43453378927722638,0.5844732716784664,0.2729730658627269,-0.5897331418674009],"m_Output":-0.9999265893301005,"m_DesiredOutput":0.0,"m_Error":1.191385023176145e-9,"m_BackPropagatedError":8.461472299997012e-13},{"m_Bias":1.0,"m_LearnRate":0.5,"m_Inputs":[-1.0,-1.0,-1.0,-1.0,-1.0,-1.0,-1.0,-1.0,-1.0,-1.0,-1.0,-1.0,-1.0,-1.0,-1.0,-1.0,-1.0,-1.0,-1.0,-1.0,-1.0,-1.0,-1.0,-1.0,-1.0,-1.0,-1.0],"m_Weights":[0.5831307492174436,-0.05773074921744364,0.8137210555998286,-0.008330794521624432,0.9850692507825565,0.01670836676637371,-0.7054306988825454,-0.5795307492174435,0.2965204341013106,0.8107693005705532,-0.1353321027290963,0.20138654427612696,0.8752692507825565,-0.6193152446117761,-0.44413079632474547,-0.34113074921744387,0.39946793589957726,0.15096920632587527,0.9632692507825564,0.7608692507824808,0.8871692171641212,0.713689583467691,0.7278692507825564,0.15776925078255653,-0.4337101931858361,0.5852692507825564,0.2737698386625973,-0.5889118512165968],"m_Output":-0.9999289858529882,"m_DesiredOutput":0.0,"m_Error":-3.6686492659800397e-9,"m_BackPropagatedError":-2.5209845978283228e-12},{"m_Bias":1.0,"m_LearnRate":0.5,"m_Inputs":[-1.0,-1.0,-1.0,-1.0,-1.0,-1.0,-1.0,-1.0,-1.0,-1.0,-1.0,-1.0,-1.0,-1.0,-1.0,-1.0,-1.0,-1.0,-1.0,-1.0,-1.0,-1.0,-1.0,-1.0,-1.0,-1.0,-1.0],"m_Weights":[0.582976457672359,-0.057576457672358898,0.8135912421096579,-0.00817651496571946,0.9852235423276411,0.016575119473510315,-0.7052763944172307,-0.5793764576723589,0.2963904580260508,0.8109236048954864,-0.13517817977414244,0.20127448758745765,0.8754235423276411,-0.6191569334998517,-0.44397651716252686,-0.34097645767235876,0.3996218687889817,0.15112348619217723,0.963423542327641,0.7610235423275457,0.8873234999295214,0.7138491682321178,0.728023542327641,0.1579235423276411,-0.4335505502774973,0.585423542327641,0.27392428401307658,-0.5887526551436245],"m_Output":-0.9999294412582422,"m_DesiredOutput":0.0,"m_Error":-4.610224414994049e-9,"m_BackPropagatedError":-3.147809065860194e-12},{"m_Bias":1.0,"m_LearnRate":0.5,"m_Inputs":[-1.0,-1.0,-1.0,-1.0,-1.0,-1.0,-1.0,-1.0,-1.0,-1.0,-1.0,-1.0,-1.0,-1.0,-1.0,-1.0,-1.0,-1.0,-1.0,-1.0,-1.0,-1.0,-1.0,-1.0,-1.0,-1.0,-1.0],"m_Weights":[0.584134738608571,-0.05873473860857193,0.8145657640090925,-0.009334705857106014,0.984065261391429,0.01757541958470359,-0.7064347723988915,-0.580534738608571,0.2973662008441588,0.8097652279682488,-0.1363336937666355,0.2021157079644023,0.874265261391429,-0.6203454019297352,-0.4451347050955534,-0.34213473860857188,0.3984662801783875,0.14996529297121079,0.962265261391429,0.7598652613914815,0.8861652849355236,0.7126511358776038,0.7268652613914289,0.156765261391428,-0.4347490192855576,0.584265261391429,0.2727648481004839,-0.5899477693340373],"m_Output":-0.9999259498347277,"m_DesiredOutput":0.0,"m_Error":2.4621348442884185e-9,"m_BackPropagatedError":1.7638041931300494e-12},{"m_Bias":1.0,"m_LearnRate":0.5,"m_Inputs":[-1.0,-1.0,-1.0,-1.0,-1.0,-1.0,-1.0,-1.0,-1.0,-1.0,-1.0,-1.0,-1.0,-1.0,-1.0,-1.0,-1.0,-1.0,-1.0,-1.0,-1.0,-1.0,-1.0,-1.0,-1.0,-1.0,-1.0],"m_Weights":[0.5845506177106632,-0.05915061771066319,0.8149156646878308,-0.009750552605664107,0.9836493822893369,0.017934576081011304,-0.7068506863743608,-0.5809506177106631,0.2977165401027692,0.8093493143716876,-0.13674857945591099,0.2024177471657511,0.8738493822893368,-0.620772126699728,-0.44555055078027258,-0.34255061771066327,0.39805136767546536,0.14954944538655938,0.9618493822893368,0.7594493822894426,0.8857494295280931,0.7122209757872368,0.7264493822893368,0.15634938228933679,-0.43517933624690965,0.5838493822893368,0.2723485541132122,-0.5903768815344496],"m_Output":-0.9999246545263469,"m_DesiredOutput":0.0,"m_Error":5.003634486514912e-9,"m_BackPropagatedError":3.646792171952098e-12},{"m_Bias":1.0,"m_LearnRate":0.5,"m_Inputs":[-1.0,-1.0,-1.0,-1.0,-1.0,-1.0,-1.0,-1.0,-1.0,-1.0,-1.0,-1.0,-1.0,-1.0,-1.0,-1.0,-1.0,-1.0,-1.0,-1.0,-1.0,-1.0,-1.0,-1.0,-1.0,-1.0,-1.0],"m_Weights":[0.5833306724904492,-0.05793067249044906,0.8138892614321543,-0.008530702257157887,0.9848693275095508,0.016881021969211059,-0.7056306389001096,-0.5797306724904492,0.2966888506263468,0.8105693607349227,-0.1355315484073139,0.20153174175895995,0.8750693275095508,-0.6195203769831957,-0.4443307035499819,-0.3413306724904491,0.39926847734640666,0.15076929818818098,0.9630693275095508,0.7606693275095007,0.886969305269358,0.7134828006090193,0.7276693275095507,0.15756932750955084,-0.43391705139433298,0.5850693275095508,0.27356971607513899,-0.5891181304149966],"m_Output":-0.999928391386704,"m_DesiredOutput":0.0,"m_Error":-2.4483678728573778e-9,"m_BackPropagatedError":-1.6964452465847488e-12},{"m_Bias":1.0,"m_LearnRate":0.5,"m_Inputs":[-1.0,-1.0,-1.0,-1.0,-1.0,-1.0,-1.0,-1.0,-1.0,-1.0,-1.0,-1.0,-1.0,-1.0,-1.0,-1.0,-1.0,-1.0,-1.0,-1.0,-1.0,-1.0,-1.0,-1.0,-1.0,-1.0,-1.0],"m_Weights":[0.5840282116687549,-0.05862821166875416,0.8144761373637767,-0.009228187202645323,0.9841717883312452,0.017483422088525926,-0.7063282365287978,-0.5804282116687548,0.29727646187494258,0.8098717637413128,-0.13622742129295269,0.2020383410003829,0.8743717883312452,-0.6202360974711025,-0.4450281867134539,-0.34202821166875399,0.39857255951847206,0.15007181183986466,0.9623717883312452,0.759971788331284,0.8862718058075286,0.7127613201698037,0.7269717883312451,0.15687178833124588,-0.43463879481879216,0.5843717883312452,0.27287148129638547,-0.5898378534466097],"m_Output":-0.9999262780282352,"m_DesiredOutput":0.0,"m_Error":1.811318101288336e-9,"m_BackPropagatedError":1.2918601381454147e-12},{"m_Bias":1.0,"m_LearnRate":0.5,"m_Inputs":[-1.0,-1.0,-1.0,-1.0,-1.0,-1.0,-1.0,-1.0,-1.0,-1.0,-1.0,-1.0,-1.0,-1.0,-1.0,-1.0,-1.0,-1.0,-1.0,-1.0,-1.0,-1.0,-1.0,-1.0,-1.0,-1.0,-1.0],"m_Weights":[0.5843112699063936,-0.05891126990639327,0.8147142889549127,-0.009511223423072308,0.9838887300936065,0.017727873404285219,-0.7066113184977803,-0.5807112699063936,0.2975149119437401,0.8095886820301775,-0.13650980337961905,0.2022439167771381,0.8740887300936064,-0.6205265365238095,-0.4453112222100503,-0.34231126990639346,0.39829015918504476,0.14978877505031963,0.9620887300936064,0.7596887300936814,0.8859887636943744,0.7124685431584034,0.7266887300936064,0.15658873009360683,-0.4349316785870638,0.5840887300936064,0.27258814070558859,-0.5901299172559763],"m_Output":-0.9999254027482223,"m_DesiredOutput":0.0,"m_Error":3.5408033350018949e-9,"m_BackPropagatedError":2.555161565812277e-12},{"m_Bias":1.0,"m_LearnRate":0.5,"m_Inputs":[-1.0,-1.0,-1.0,-1.0,-1.0,-1.0,-1.0,-1.0,-1.0,-1.0,-1.0,-1.0,-1.0,-1.0,-1.0,-1.0,-1.0,-1.0,-1.0,-1.0,-1.0,-1.0,-1.0,-1.0,-1.0,-1.0,-1.0],"m_Weights":[0.5832449082705777,-0.05784490827057776,0.8138171035399953,-0.008444944702984027,0.9849550917294223,0.01680695535800485,-0.7055448674966242,-0.5796449082705777,0.29661660234684808,0.8106551320603566,-0.135445989067951,0.20146945411544577,0.8751550917294223,-0.6194323780317744,-0.4442449462147422,-0.3412449082705775,0.3993540422092708,0.15085505591487093,0.9631550917294223,0.7607550917293612,0.8870550646078547,0.7135715076168437,0.7277550917294222,0.15765509172942225,-0.4338283120611511,0.5851550917294223,0.2736555658009695,-0.5890296394720609],"m_Output":-0.9999286470113444,"m_DesiredOutput":0.0,"m_Error":-2.9718836557094557e-9,"m_BackPropagatedError":-2.0518753976674873e-12},{"m_Bias":1.0,"m_LearnRate":0.5,"m_Inputs":[-1.0,-1.0,-1.0,-1.0,-1.0,-1.0,-1.0,-1.0,-1.0,-1.0,-1.0,-1.0,-1.0,-1.0,-1.0,-1.0,-1.0,-1.0,-1.0,-1.0,-1.0,-1.0,-1.0,-1.0,-1.0,-1.0,-1.0],"m_Weights":[0.5830587908669936,-0.057658790866994148,0.8136605133024023,-0.008258841762886127,0.9851412091330064,0.016646223013445199,-0.7053587345061053,-0.5794587908669936,0.29645981597566509,0.8108412648815194,-0.13526031628088473,0.20133428337741753,0.8753412091330064,-0.6192414115571153,-0.4440588437496292,-0.34105879086699417,0.39953972698120907,0.15104115922937307,0.9633412091330064,0.7609412091329216,0.8872411714197452,0.7137640105399612,0.7279412091330063,0.1578412091330058,-0.4336357389956375,0.5853412091330064,0.2738418687464357,-0.5888376054230023],"m_Output":-0.9999291986091067,"m_DesiredOutput":0.0,"m_Error":-4.107799915480212e-9,"m_BackPropagatedError":-2.8143481912172477e-12},{"m_Bias":1.0,"m_LearnRate":0.5,"m_Inputs":[-1.0,-1.0,-1.0,-1.0,-1.0,-1.0,-1.0,-1.0,-1.0,-1.0,-1.0,-1.0,-1.0,-1.0,-1.0,-1.0,-1.0,-1.0,-1.0,-1.0,-1.0,-1.0,-1.0,-1.0,-1.0,-1.0,-1.0],"m_Weights":[0.5825866634959835,-0.057186663495983367,0.8132632880234341,-0.007786751070727573,0.9856133365040165,0.016238490467788633,-0.7048865676093429,-0.5789866634959835,0.29606209326264995,0.8113134313488245,-0.13478931680242163,0.2009913934452561,0.8758133365040165,-0.6187569867268085,-0.4435867542615936,-0.3405866634959832,0.40001075685142958,0.15151325087144963,0.9638133365040165,0.7614133365038714,0.8877132719312428,0.7142523322399448,0.7284133365040164,0.15831333650401675,-0.4331472394073804,0.5858133365040165,0.2743144666919496,-0.5883504730663631],"m_Output":-0.9999305788030901,"m_DesiredOutput":0.0,"m_Error":-6.988266611342308e-9,"m_BackPropagatedError":-4.695029963828727e-12},{"m_Bias":1.0,"m_LearnRate":0.5,"m_Inputs":[-1.0,-1.0,-1.0,-1.0,-1.0,-1.0,-1.0,-1.0,-1.0,-1.0,-1.0,-1.0,-1.0,-1.0,-1.0,-1.0,-1.0,-1.0,-1.0,-1.0,-1.0,-1.0,-1.0,-1.0,-1.0,-1.0,-1.0],"m_Weights":[0.5830458303589294,-0.05764583035893008,0.8136496089538503,-0.008245882261913399,0.9851541696410706,0.01663503022506991,-0.7053457729127417,-0.5794458303589294,0.2964488979699573,0.8108542264630909,-0.135247386734438,0.20132487060230759,0.8753541696410706,-0.6192281134053133,-0.444045884281726,-0.34104583035893007,0.3995526573621495,0.1510541187564193,0.9633541696410706,0.7609541696409841,0.887254131190316,0.7137774156786524,0.7279541696410705,0.15785416964107,-0.43362232897285565,0.5853541696410706,0.2738548421741613,-0.5888242329344329],"m_Output":-0.9999292368610742,"m_DesiredOutput":0.0,"m_Error":-4.1868922279973899e-9,"m_BackPropagatedError":-2.86699543976457e-12},{"m_Bias":1.0,"m_LearnRate":0.5,"m_Inputs":[-1.0,-1.0,-1.0,-1.0,-1.0,-1.0,-1.0,-1.0,-1.0,-1.0,-1.0,-1.0,-1.0,-1.0,-1.0,-1.0,-1.0,-1.0,-1.0,-1.0,-1.0,-1.0,-1.0,-1.0,-1.0,-1.0,-1.0],"m_Weights":[0.5840559542506874,-0.058655954250687498,0.8144994786383647,-0.009255927626917999,0.9841440457493127,0.017507380798082386,-0.706355981436325,-0.5804559542506873,0.2972998324011009,0.8098440188590537,-0.13625509760463629,0.2020584895117185,0.8743440457493127,-0.6202645633732731,-0.44505592706680166,-0.3420559542506873,0.39854488141866026,0.15004407135980889,0.9623440457493127,0.759944045749355,0.8862440648057621,0.7127326251391672,0.7269440457493126,0.15684404574931244,-0.43466750031170017,0.5843440457493127,0.27284371104304946,-0.589866478577597],"m_Output":-0.999926192697856,"m_DesiredOutput":0.0,"m_Error":1.980801628111255e-9,"m_BackPropagatedError":1.4143640033564202e-12},{"m_Bias":1.0,"m_LearnRate":0.5,"m_Inputs":[-1.0,-1.0,-1.0,-1.0,-1.0,-1.0,-1.0,-1.0,-1.0,-1.0,-1.0,-1.0,-1.0,-1.0,-1.0,-1.0,-1.0,-1.0,-1.0,-1.0,-1.0,-1.0,-1.0,-1.0,-1.0,-1.0,-1.0],"m_Weights":[0.5825002122223987,-0.057100212222398968,0.8131905520765264,-0.007700306511712198,0.9856997877776014,0.01616383054874713,-0.7048001091003547,-0.5789002122223986,0.2959892662464024,0.8113998897791982,-0.13470307206132779,0.20092860686536205,0.8758997877776014,-0.6186682841720375,-0.4435003099229449,-0.3405002122223988,0.40009700715593229,0.1515996956044291,0.9638997877776013,0.7614997877774453,0.8877997182879204,0.7143417482472089,0.7284997877776013,0.1583997877776009,-0.4330577908336943,0.5858997877776013,0.27440100411796017,-0.5882612748309366],"m_Output":-0.9999308286002954,"m_DesiredOutput":0.0,"m_Error":-7.515548694789524e-9,"m_BackPropagatedError":-5.031218996975346e-12},{"m_Bias":1.0,"m_LearnRate":0.5,"m_Inputs":[-1.0,-1.0,-1.0,-1.0,-1.0,-1.0,-1.0,-1.0,-1.0,-1.0,-1.0,-1.0,-1.0,-1.0,-1.0,-1.0,-1.0,-1.0,-1.0,-1.0,-1.0,-1.0,-1.0,-1.0,-1.0,-1.0,-1.0],"m_Weights":[0.5829151041501205,-0.05751510415012071,0.8135396222048562,-0.008115166210473497,0.9852848958498796,0.01652213413229094,-0.7052150357578975,-0.5793151041501204,0.2963387734741478,0.8109849634990037,-0.13511697282164898,0.2012299286209534,0.8754848958498795,-0.6190939817492442,-0.4439151685637963,-0.3409151041501208,0.39968307969142988,0.15118483507085826,0.9634848958498795,0.7610848958497765,0.8873848499609149,0.7139126264180363,0.7280848958498795,0.15798489584987916,-0.43348706897268399,0.5854848958498795,0.2739856986915669,-0.5886893515171051],"m_Output":-0.9999296215359746,"m_DesiredOutput":0.0,"m_Error":-4.9845946942419178e-9,"m_BackPropagatedError":-3.394779952018642e-12},{"m_Bias":1.0,"m_LearnRate":0.5,"m_Inputs":[-1.0,-1.0,-1.0,-1.0,-1.0,-1.0,-1.0,-1.0,-1.0,-1.0,-1.0,-1.0,-1.0,-1.0,-1.0,-1.0,-1.0,-1.0,-1.0,-1.0,-1.0,-1.0,-1.0,-1.0,-1.0,-1.0,-1.0],"m_Weights":[0.5827416379127212,-0.057341637912720438,0.8133936760497033,-0.00794171344946814,0.9854583620872789,0.016372327458966976,-0.7050415549980936,-0.5791416379127211,0.2961926445540739,0.811158444101018,-0.1349439209876734,0.20110394603579247,0.8756583620872789,-0.6189159972317854,-0.4437417162452078,-0.3407416379127205,0.39985614269183036,0.1513582881808759,0.9636583620872788,0.7612583620871536,0.887558306329697,0.7140920427044203,0.7282583620872788,0.15815836208727974,-0.43330758732737387,0.5856583620872788,0.27415933782526016,-0.5885103722125349],"m_Output":-0.9999301287509336,"m_DesiredOutput":0.0,"m_Error":-6.042925161733107e-9,"m_BackPropagatedError":-4.08607285117023e-12},{"m_Bias":1.0,"m_LearnRate":0.5,"m_Inputs":[-1.0,-1.0,-1.0,-1.0,-1.0,-1.0,-1.0,-1.0,-1.0,-1.0,-1.0,-1.0,-1.0,-1.0,-1.0,-1.0,-1.0,-1.0,-1.0,-1.0,-1.0,-1.0,-1.0,-1.0,-1.0,-1.0,-1.0],"m_Weights":[0.5847563920778537,-0.059356392077853929,0.8150887933442496,-0.009956310960017624,0.9834436079221464,0.018112284494081845,-0.7070564780024209,-0.5811563920778536,0.29788988580652739,0.8091435229311714,-0.13695386229929414,0.2025671943108008,0.8736436079221464,-0.6209832687832221,-0.44575630860792328,-0.3427563920778543,0.39784607156053,0.14934368661857864,0.9616436079221463,0.7592436079222782,0.8855436668884337,0.712008133653578,0.7262436079221463,0.15614360792214614,-0.4353922560171768,0.5836436079221463,0.2721425744262269,-0.5905892051531728],"m_Output":-0.9999240052607327,"m_DesiredOutput":0.0,"m_Error":6.261578885602495e-9,"m_BackPropagatedError":4.602711482503908e-12},{"m_Bias":1.0,"m_LearnRate":0.5,"m_Inputs":[-1.0,-1.0,-1.0,-1.0,-1.0,-1.0,-1.0,-1.0,-1.0,-1.0,-1.0,-1.0,-1.0,-1.0,-1.0,-1.0,-1.0,-1.0,-1.0,-1.0,-1.0,-1.0,-1.0,-1.0,-1.0,-1.0,-1.0],"m_Weights":[0.5843931136714655,-0.058993113671465719,0.8147831483633335,-0.009593060821011282,0.9838068863285345,0.01779855433040487,-0.7066931691258981,-0.5807931136714655,0.2975838576638723,0.8095068314766284,-0.13659145164414605,0.20230335719034663,0.8740068863285345,-0.620610514700315,-0.445393059398625,-0.3423931136714658,0.39820850564361967,0.14970693748784087,0.9620068863285345,0.75960688632862,0.8859069245923846,0.712383888917764,0.7266068863285344,0.1565068863285342,-0.4350163636996616,0.5840068863285345,0.27250621529189147,-0.5902143652747042],"m_Output":-0.9999251477373243,"m_DesiredOutput":0.0,"m_Error":4.0409680541596958e-9,"m_BackPropagatedError":2.9260071112332193e-12},{"m_Bias":1.0,"m_LearnRate":0.5,"m_Inputs":[-1.0,-1.0,-1.0,-1.0,-1.0,-1.0,-1.0,-1.0,-1.0,-1.0,-1.0,-1.0,-1.0,-1.0,-1.0,-1.0,-1.0,-1.0,-1.0,-1.0,-1.0,-1.0,-1.0,-1.0,-1.0,-1.0,-1.0],"m_Weights":[0.584440688165689,-0.05904068816568858,0.814823175255057,-0.0096406316139023,0.9837593118343111,0.017839640043485887,-0.7067407476097789,-0.5808406881656889,0.2976239347292038,0.8094592530360961,-0.13663891249748554,0.20233790897046598,0.8739593118343111,-0.6206593299592256,-0.4454406300698004,-0.3424406881656885,0.3981610417226943,0.14965936659930857,0.961959311834311,0.7595593118344027,0.8858593528089087,0.7123346806601548,0.726559311834311,0.15645931183431145,-0.43506558990351248,0.583959311834311,0.272458593334812,-0.5902634536575322],"m_Output":-0.9999249991030109,"m_DesiredOutput":0.0,"m_Error":4.331726460176183e-9,"m_BackPropagatedError":3.142732722715523e-12},{"m_Bias":1.0,"m_LearnRate":0.5,"m_Inputs":[-1.0,-1.0,-1.0,-1.0,-1.0,-1.0,-1.0,-1.0,-1.0,-1.0,-1.0,-1.0,-1.0,-1.0,-1.0,-1.0,-1.0,-1.0,-1.0,-1.0,-1.0,-1.0,-1.0,-1.0,-1.0,-1.0,-1.0],"m_Weights":[0.5831598765517315,-0.057759876551731637,0.8137455619388877,-0.00835991959239337,0.9850401234482685,0.016733521344187098,-0.7054598286561684,-0.5795598765517315,0.2965449711351118,0.8107401708234343,-0.1353611604809619,0.20140769846789392,0.8752401234482685,-0.6193451308206562,-0.4441599213211804,-0.34115987655173199,0.3994388762720946,0.15094008119651176,0.9632401234482685,0.7608401234481964,0.8871400914874201,0.7136594568057705,0.7278401234482684,0.1577401234482684,-0.4337403308249748,0.5852401234482685,0.27374068229115697,-0.5889419044998986],"m_Output":-0.9999288995517938,"m_DesiredOutput":0.0,"m_Error":-3.490879877846158e-9,"m_BackPropagatedError":-2.401724990558359e-12},{"m_Bias":1.0,"m_LearnRate":0.5,"m_Inputs":[-1.0,-1.0,-1.0,-1.0,-1.0,-1.0,-1.0,-1.0,-1.0,-1.0,-1.0,-1.0,-1.0,-1.0,-1.0,-1.0,-1.0,-1.0,-1.0,-1.0,-1.0,-1.0,-1.0,-1.0,-1.0,-1.0,-1.0],"m_Weights":[0.5832919253315729,-0.05789192533157303,0.8138566614351535,-0.008491958109821374,0.9849080746684271,0.016847559637246383,-0.7055918884956886,-0.5796919253315729,0.29665620979292986,0.8106081111040804,-0.135492893810635,0.2015036010112215,0.8751080746684271,-0.6194806201825163,-0.4442919595015619,-0.3412919253315732,0.3993071344385928,0.1508080424134573,0.9631080746684271,0.760708074668372,0.887008050222842,0.7135228773042823,0.727708074668427,0.15760807466842703,-0.433876960094641,0.5851080746684271,0.2736085018650366,-0.5890781513353843],"m_Output":-0.9999285069878122,"m_DesiredOutput":0.0,"m_Error":-2.684891550289839e-9,"m_BackPropagatedError":-1.8573440838551233e-12},{"m_Bias":1.0,"m_LearnRate":0.5,"m_Inputs":[-1.0,-1.0,-1.0,-1.0,-1.0,-1.0,-1.0,-1.0,-1.0,-1.0,-1.0,-1.0,-1.0,-1.0,-1.0,-1.0,-1.0,-1.0,-1.0,-1.0,-1.0,-1.0,-1.0,-1.0,-1.0,-1.0,-1.0],"m_Weights":[0.584155204173338,-0.058755204173338296,0.8145829827512701,-0.00935516983002835,0.984044795826662,0.017593093806792517,-0.7064552396794273,-0.580555204173338,0.29738344116642709,0.8097447607063553,-0.1363541104445175,0.2021305714225581,0.874244795826662,-0.6203664011285941,-0.4451551690161445,-0.3421552041733386,0.3984458621812694,0.14994482895713963,0.962244795826662,0.7598447958267173,0.8861448205365545,0.7126299676427601,0.726844795826662,0.15674479582666166,-0.43477019523895296,0.584244795826662,0.2727443621214269,-0.5899688860034302],"m_Output":-0.9999258866162756,"m_DesiredOutput":0.0,"m_Error":2.587176024077807e-9,"m_BackPropagatedError":1.854953162422457e-12},{"m_Bias":1.0,"m_LearnRate":0.5,"m_Inputs":[-1.0,-1.0,-1.0,-1.0,-1.0,-1.0,-1.0,-1.0,-1.0,-1.0,-1.0,-1.0,-1.0,-1.0,-1.0,-1.0,-1.0,-1.0,-1.0,-1.0,-1.0,-1.0,-1.0,-1.0,-1.0,-1.0,-1.0],"m_Weights":[0.5849438899304412,-0.059543889930441549,0.815246545019387,-0.010143794219397575,0.9832561100695588,0.01827420918079115,-0.7072439915861093,-0.5813438899304412,0.29804783527463737,0.8089560095184053,-0.13714091229046386,0.20270336785142288,0.8734561100695588,-0.6211756583784169,-0.44594379138719578,-0.34294388993044158,0.3976590094740678,0.14915620298234728,0.9614561100695588,0.7590561100697145,0.8853561797238128,0.7118141948449357,0.7260561100695587,0.15595611006955849,-0.43558626557716348,0.5834561100695588,0.27195488946864668,-0.5907826714855338],"m_Output":-0.9999234087911011,"m_DesiredOutput":0.0,"m_Error":7.408040787046956e-9,"m_BackPropagatedError":5.487931595566483e-12},{"m_Bias":1.0,"m_LearnRate":0.5,"m_Inputs":[-1.0,-1.0,-1.0,-1.0,-1.0,-1.0,-1.0,-1.0,-1.0,-1.0,-1.0,-1.0,-1.0,-1.0,-1.0,-1.0,-1.0,-1.0,-1.0,-1.0,-1.0,-1.0,-1.0,-1.0,-1.0,-1.0,-1.0],"m_Weights":[0.5827784327776417,-0.05737843277764203,0.8134246334806721,-0.007978505456015316,0.9854215672223583,0.016404103763922378,-0.7050783529432153,-0.5791784327776417,0.2962236407506542,0.8111216461893634,-0.1349806279508182,0.2011306688837127,0.8756215672223583,-0.6189537504407613,-0.4437785081579238,-0.3407784327776419,0.3998194333602846,0.15132149610029536,0.9636215672223583,0.7612215672222377,0.8875215135579226,0.7140539858059548,0.7282215672223582,0.15812156722235796,-0.43334565808877698,0.5856215672223583,0.2741225062878755,-0.5885483364213469],"m_Output":-0.9999300214691886,"m_DesiredOutput":0.0,"m_Error":-5.818453646208321e-9,"m_BackPropagatedError":-3.940296307164235e-12},{"m_Bias":1.0,"m_LearnRate":0.5,"m_Inputs":[-1.0,-1.0,-1.0,-1.0,-1.0,-1.0,-1.0,-1.0,-1.0,-1.0,-1.0,-1.0,-1.0,-1.0,-1.0,-1.0,-1.0,-1.0,-1.0,-1.0,-1.0,-1.0,-1.0,-1.0,-1.0,-1.0,-1.0],"m_Weights":[0.5830645921780002,-0.05766459217800046,0.8136653942466482,-0.008264642623099939,0.9851354078219998,0.01665123306756299,-0.7053645363029123,-0.5794645921780002,0.29646470303308738,0.8108354630899908,-0.13526610373303189,0.201338496671842,0.8753354078219998,-0.6192473640034906,-0.4440646445950404,-0.34106459217800058,0.39953393915552645,0.15103535835748853,0.9633354078219998,0.7609354078219157,0.8872353704388548,0.7137580102044725,0.7279354078219997,0.15783540782199963,-0.43364174151733117,0.5853354078219998,0.27383606165236937,-0.5888435911438036],"m_Output":-0.9999291814802732,"m_DesiredOutput":0.0,"m_Error":-4.072396689877284e-9,"m_BackPropagatedError":-2.79076367456575e-12},{"m_Bias":1.0,"m_LearnRate":0.5,"m_Inputs":[-1.0,-1.0,-1.0,-1.0,-1.0,-1.0,-1.0,-1.0,-1.0,-1.0,-1.0,-1.0,-1.0,-1.0,-1.0,-1.0,-1.0,-1.0,-1.0,-1.0,-1.0,-1.0,-1.0,-1.0,-1.0,-1.0,-1.0],"m_Weights":[0.5825693738921072,-0.05716937389210716,0.8132487413816448,-0.0077694628097566419,0.9856306261078929,0.016223559045705404,-0.7048692765583867,-0.5789693738921071,0.29604752840728457,0.8113307223840578,-0.13477206850338928,0.20097883660151673,0.8758306261078929,-0.6187392468710827,-0.44356946604469757,-0.34056937389210725,0.40002800626314197,0.1515305391672115,0.9638306261078928,0.7614306261077456,0.8877305605517418,0.714270214783362,0.7284306261078928,0.15833062610789293,-0.43312935035075819,0.5858306261078928,0.27433177352602236,-0.5883326340758924],"m_Output":-0.9999306288327169,"m_DesiredOutput":0.0,"m_Error":-7.093723028031756e-9,"m_BackPropagatedError":-4.762465771131583e-12},{"m_Bias":1.0,"m_LearnRate":0.5,"m_Inputs":[-1.0,-1.0,-1.0,-1.0,-1.0,-1.0,-1.0,-1.0,-1.0,-1.0,-1.0,-1.0,-1.0,-1.0,-1.0,-1.0,-1.0,-1.0,-1.0,-1.0,-1.0,-1.0,-1.0,-1.0,-1.0,-1.0,-1.0],"m_Weights":[0.5829081908202293,-0.05750819082022901,0.8135338056613553,-0.008108253417711044,0.9852918091797708,0.016516163731218046,-0.7052081218491785,-0.5793081908202292,0.29633294964634945,0.8109918774014338,-0.13511007600731099,0.20122490770588337,0.8754918091797708,-0.61908688833555,-0.44390825578866907,-0.3409081908202291,0.3996899769508337,0.1511917478775298,0.9634918091797707,0.7610918091796667,0.8873917628974697,0.7139197768959726,0.7280918091797707,0.15799180917977108,-0.43347991588977016,0.5854918091797707,0.2739926189124189,-0.5886822184548716],"m_Output":-0.9999296418208147,"m_DesiredOutput":0.0,"m_Error":-5.026777260917731e-9,"m_BackPropagatedError":-3.4225276084725632e-12},{"m_Bias":1.0,"m_LearnRate":0.5,"m_Inputs":[-1.0,-1.0,-1.0,-1.0,-1.0,-1.0,-1.0,-1.0,-1.0,-1.0,-1.0,-1.0,-1.0,-1.0,-1.0,-1.0,-1.0,-1.0,-1.0,-1.0,-1.0,-1.0,-1.0,-1.0,-1.0,-1.0,-1.0],"m_Weights":[0.5849188842205264,-0.0595188842205272,0.8152255064178062,-0.010118790455854404,0.9832811157794736,0.01825261404307038,-0.7072189837780286,-0.5813188842205264,0.2980267702930481,0.8089810173036889,-0.13711596630939097,0.20268520702303453,0.8734811157794736,-0.6211500002368715,-0.44591878768769246,-0.3429188842205275,0.3976839570683704,0.14918120679614725,0.9614811157794736,0.7590811157796262,0.8853811840082105,0.7118400596065668,0.7260811157794735,0.1559811157794729,-0.43556039137919097,0.5834811157794736,0.2719799201330498,-0.5907568697366774],"m_Output":-0.9999234886092279,"m_DesiredOutput":0.0,"m_Error":7.2551289828463788e-9,"m_BackPropagatedError":5.369085225498194e-12},{"m_Bias":1.0,"m_LearnRate":0.5,"m_Inputs":[-1.0,-1.0,-1.0,-1.0,-1.0,-1.0,-1.0,-1.0,-1.0,-1.0,-1.0,-1.0,-1.0,-1.0,-1.0,-1.0,-1.0,-1.0,-1.0,-1.0,-1.0,-1.0,-1.0,-1.0,-1.0,-1.0,-1.0],"m_Weights":[0.5835578164025128,-0.05815781640251214,0.8140803694010803,-0.008757828512822998,0.9846421835974872,0.017077185142712987,-0.705857801840938,-0.5799578164025128,0.29688019800645379,0.8103421980008467,-0.1357581497055216,0.20169670870284055,0.8748421835974872,-0.6197534402609928,-0.44455782922562689,-0.3415578164025122,0.3990418614169756,0.1505421714756489,0.9628421835974872,0.7604421835974662,0.8867421742874417,0.7132478619128887,0.7274421835974871,0.15734218359748784,-0.4341520757130707,0.5848421835974872,0.2733423456820583,-0.5893524968563784],"m_Output":-0.9999277099390699,"m_DesiredOutput":0.0,"m_Error":-1.061615993388265e-9,"m_BackPropagatedError":-7.425399820700462e-13},{"m_Bias":1.0,"m_LearnRate":0.5,"m_Inputs":[-1.0,-1.0,-1.0,-1.0,-1.0,-1.0,-1.0,-1.0,-1.0,-1.0,-1.0,-1.0,-1.0,-1.0,-1.0,-1.0,-1.0,-1.0,-1.0,-1.0,-1.0,-1.0,-1.0,-1.0,-1.0,-1.0,-1.0],"m_Weights":[0.5831277870638867,-0.057727787063886908,0.8137185633862014,-0.008327832598256731,0.9850722129361134,0.01670580862903732,-0.7054277364809205,-0.5795277870638866,0.29651793876616119,0.8107722629694828,-0.13532914765184987,0.20138439296482775,0.8752722129361134,-0.6193122052841829,-0.444127834408937,-0.3411277870638872,0.39947089116756487,0.15097216825520166,0.9632722129361133,0.7608722129360372,0.8871721791491097,0.7136926472483599,0.7278722129361133,0.15777221293611305,-0.4337071282888347,0.5852722129361133,0.273772803769108,-0.5889087948982726],"m_Output":-0.9999289946236635,"m_DesiredOutput":0.0,"m_Error":-3.68672750884111e-9,"m_BackPropagatedError":-2.5330963601141846e-12},{"m_Bias":1.0,"m_LearnRate":0.5,"m_Inputs":[-1.0,-1.0,-1.0,-1.0,-1.0,-1.0,-1.0,-1.0,-1.0,-1.0,-1.0,-1.0,-1.0,-1.0,-1.0,-1.0,-1.0,-1.0,-1.0,-1.0,-1.0,-1.0,-1.0,-1.0,-1.0,-1.0,-1.0],"m_Weights":[0.5834230914350109,-0.05802309143501016,0.813967018289674,-0.008623114018228618,0.9847769085649891,0.016960835654268169,-0.7057230655864227,-0.5798230914350109,0.2967667048900046,0.8104769341327258,-0.13562374657538912,0.20159886250928583,0.8749769085649891,-0.6196152042325954,-0.44442311507508816,-0.34142309143500967,0.3991762732256885,0.1506768862412165,0.9629769085649891,0.7605769085649508,0.8868768915853911,0.7133872103274614,0.727576908564989,0.1574769085649898,-0.4340126765117674,0.5849769085649891,0.2734772049850411,-0.5892134878633667],"m_Output":-0.9999281149020157,"m_DesiredOutput":0.0,"m_Error":-1.884176043567754e-9,"m_BackPropagatedError":-1.310534472424075e-12},{"m_Bias":1.0,"m_LearnRate":0.5,"m_Inputs":[-1.0,-1.0,-1.0,-1.0,-1.0,-1.0,-1.0,-1.0,-1.0,-1.0,-1.0,-1.0,-1.0,-1.0,-1.0,-1.0,-1.0,-1.0,-1.0,-1.0,-1.0,-1.0,-1.0,-1.0,-1.0,-1.0,-1.0],"m_Weights":[0.584473471225239,-0.059073471225238819,0.8148507573448948,-0.009673412122812699,0.9837265287747611,0.017867951756197509,-0.7067735334186759,-0.5808734712252389,0.29765155139396279,0.8094264672570716,-0.13667161724857417,0.20236171822221797,0.8739265287747611,-0.6206929680438017,-0.44547341049483127,-0.3424734712252387,0.3981283348576767,0.1496265860244943,0.961926528774761,0.7595265287748567,0.8858265716173782,0.7123007717588397,0.726526528774761,0.15642652877476133,-0.4350995111717525,0.583926528774761,0.2724257775683634,-0.5902972799539317],"m_Output":-0.9999248965090031,"m_DesiredOutput":0.0,"m_Error":4.532093651887036e-9,"m_BackPropagatedError":3.2925734991481392e-12},{"m_Bias":1.0,"m_LearnRate":0.5,"m_Inputs":[-1.0,-1.0,-1.0,-1.0,-1.0,-1.0,-1.0,-1.0,-1.0,-1.0,-1.0,-1.0,-1.0,-1.0,-1.0,-1.0,-1.0,-1.0,-1.0,-1.0,-1.0,-1.0,-1.0,-1.0,-1.0,-1.0,-1.0],"m_Weights":[0.5842724408668842,-0.05887244086688435,0.8146816200681427,-0.009472397404149754,0.9839275591331158,0.01769434033838508,-0.7065724862024542,-0.5806724408668842,0.2974822021097046,0.8096275142901284,-0.13647106709158875,0.2022157165347169,0.8741275591331158,-0.6204866949074003,-0.44527239629044459,-0.3422724408668844,0.3983288979764291,0.1498276011473073,0.9621275591331158,0.759727559133186,0.8860275905217143,0.7125087055090321,0.7267275591331157,0.15662755913311578,-0.4348915015905423,0.5841275591331158,0.2726270084801897,-0.5900898527420332],"m_Output":-0.9999255234286709,"m_DesiredOutput":0.0,"m_Error":3.303526397449658e-9,"m_BackPropagatedError":2.3801006257501933e-12},{"m_Bias":1.0,"m_LearnRate":0.5,"m_Inputs":[-1.0,-1.0,-1.0,-1.0,-1.0,-1.0,-1.0,-1.0,-1.0,-1.0,-1.0,-1.0,-1.0,-1.0,-1.0,-1.0,-1.0,-1.0,-1.0,-1.0,-1.0,-1.0,-1.0,-1.0,-1.0,-1.0,-1.0],"m_Weights":[0.5840090996242267,-0.058609099624226158,0.8144600574084017,-0.009209076644512206,0.9841909003757734,0.017466916778454124,-0.7063091228821924,-0.5804090996242266,0.29726036176825806,0.8098908773705115,-0.13620835490250403,0.20202446056063864,0.8743909003757734,-0.6202164871360025,-0.4450090762041794,-0.34200909962422618,0.39859162714074378,0.15009092243642734,0.9623909003757734,0.75999090037581,0.8862909167634951,0.7127810883510641,0.7269909003757733,0.15689090037577367,-0.4346190194301311,0.5843909003757734,0.2728906124036592,-0.5898181334194951],"m_Output":-0.9999263367554844,"m_DesiredOutput":0.0,"m_Error":1.6945627828103302e-9,"m_BackPropagatedError":1.2076313173844356e-12},{"m_Bias":1.0,"m_LearnRate":0.5,"m_Inputs":[-1.0,-1.0,-1.0,-1.0,-1.0,-1.0,-1.0,-1.0,-1.0,-1.0,-1.0,-1.0,-1.0,-1.0,-1.0,-1.0,-1.0,-1.0,-1.0,-1.0,-1.0,-1.0,-1.0,-1.0,-1.0,-1.0,-1.0],"m_Weights":[0.583240342180992,-0.05784034218099204,0.813813261851694,-0.00844037896826573,0.9849596578190081,0.016803012049564915,-0.7055403010246009,-0.5796403421809919,0.29661275584645588,0.8106596985282245,-0.1354414338862439,0.20146613791962587,0.8751596578190081,-0.6194276929693529,-0.44424038049167949,-0.34124034218099227,0.3993585976850349,0.15085962165877418,0.963159657819008,0.7607596578189465,0.8870596304375673,0.7135762303753233,0.727759657819008,0.1576596578190079,-0.43382358758172626,0.585159657819008,0.2736601364427719,-0.5890249282168044],"m_Output":-0.9999286605951926,"m_DesiredOutput":0.0,"m_Error":-2.9997542801202819e-9,"m_BackPropagatedError":-2.070726112168863e-12},{"m_Bias":1.0,"m_LearnRate":0.5,"m_Inputs":[-1.0,-1.0,-1.0,-1.0,-1.0,-1.0,-1.0,-1.0,-1.0,-1.0,-1.0,-1.0,-1.0,-1.0,-1.0,-1.0,-1.0,-1.0,-1.0,-1.0,-1.0,-1.0,-1.0,-1.0,-1.0,-1.0,-1.0],"m_Weights":[0.5838503926227538,-0.058450392622754237,0.8143265289676003,-0.009050381985114209,0.9843496073772462,0.01732985618734537,-0.706150402578286,-0.5802503926227538,0.2971266659994456,0.8100495975298834,-0.13605002701624129,0.20190919697525046,0.8745496073772462,-0.6200536426115323,-0.4448503819504324,-0.34185039262275426,0.39874996525514747,0.1502496174149619,0.9625496073772462,0.7601496073772622,0.8864496147263019,0.712945243574207,0.7271496073772461,0.15704960737724586,-0.434454804360437,0.5845496073772462,0.273049477694465,-0.5896543780643444],"m_Output":-0.9999268226244981,"m_DesiredOutput":0.0,"m_Error":7.251170093834794e-10,"m_BackPropagatedError":5.133666438613302e-13},{"m_Bias":1.0,"m_LearnRate":0.5,"m_Inputs":[-1.0,-1.0,-1.0,-1.0,-1.0,-1.0,-1.0,-1.0,-1.0,-1.0,-1.0,-1.0,-1.0,-1.0,-1.0,-1.0,-1.0,-1.0,-1.0,-1.0,-1.0,-1.0,-1.0,-1.0,-1.0,-1.0,-1.0],"m_Weights":[0.5844650907049881,-0.05906509070498782,0.8148437063781593,-0.00966503225460352,0.983734909295012,0.01786071427175264,-0.7067651521955845,-0.580865090704988,0.2976444915885779,0.8094348484725263,-0.13666325674674446,0.2023556317274977,0.8739349092950119,-0.620684368946478,-0.44546503064806539,-0.34246509070498756,0.3981366958999092,0.14963496590955059,0.9619349092950119,0.7595349092951066,0.8858349516600913,0.712309440087029,0.7265349092950119,0.15643490929501209,-0.43509083968210707,0.5839349092950119,0.27243416644972476,-0.590288632742548],"m_Output":-0.9999249227490393,"m_DesiredOutput":0.0,"m_Error":4.480871963780501e-9,"m_BackPropagatedError":3.254230165270947e-12},{"m_Bias":1.0,"m_LearnRate":0.5,"m_Inputs":[-1.0,-1.0,-1.0,-1.0,-1.0,-1.0,-1.0,-1.0,-1.0,-1.0,-1.0,-1.0,-1.0,-1.0,-1.0,-1.0,-1.0,-1.0,-1.0,-1.0,-1.0,-1.0,-1.0,-1.0,-1.0,-1.0,-1.0],"m_Weights":[0.5826679202754915,-0.05726792027549121,0.8133316535725945,-0.007868001538637601,0.9855320797245085,0.016308664389677098,-0.7049678311901186,-0.5790679202754915,0.29613054441365407,0.8112321678419462,-0.13487037946024189,0.201050407448219,0.8757320797245085,-0.6188403596606216,-0.44366800452234475,-0.34066792027549105,0.3999296889640233,0.15143200024003496,0.9637320797245085,0.7613320797243739,0.8876320197735839,0.7141682886927838,0.7283320797245084,0.15823207972450896,-0.4332313135660772,0.5857320797245085,0.2742331289324519,-0.5884343119241857],"m_Output":-0.9999303431927356,"m_DesiredOutput":0.0,"m_Error":-6.49262145290183e-9,"m_BackPropagatedError":-4.376751026890371e-12},{"m_Bias":1.0,"m_LearnRate":0.5,"m_Inputs":[-1.0,-1.0,-1.0,-1.0,-1.0,-1.0,-1.0,-1.0,-1.0,-1.0,-1.0,-1.0,-1.0,-1.0,-1.0,-1.0,-1.0,-1.0,-1.0,-1.0,-1.0,-1.0,-1.0,-1.0,-1.0,-1.0,-1.0],"m_Weights":[0.5827233634051223,-0.05732336340512257,0.813378300757286,-0.007923440361472814,0.9854766365948777,0.01635654546555736,-0.7050232789607295,-0.5791233634051223,0.29617725000868835,0.8111767201217607,-0.1349256901373842,0.2010906738883147,0.8756766365948777,-0.6188972467643843,-0.44372344320381187,-0.34072336340512279,0.39987437471837386,0.15137656130564124,0.9636766365948777,0.76127663659475,0.8875765797977434,0.7141109439998363,0.7282766365948776,0.15817663659487744,-0.4332886791469432,0.5856766365948777,0.2741776305462714,-0.5884915169521002],"m_Output":-0.9999301819722495,"m_DesiredOutput":0.0,"m_Error":-6.15440765937628e-9,"m_BackPropagatedError":-4.1583032331886216e-12},{"m_Bias":1.0,"m_LearnRate":0.5,"m_Inputs":[-1.0,-1.0,-1.0,-1.0,-1.0,-1.0,-1.0,-1.0,-1.0,-1.0,-1.0,-1.0,-1.0,-1.0,-1.0,-1.0,-1.0,-1.0,-1.0,-1.0,-1.0,-1.0,-1.0,-1.0,-1.0,-1.0,-1.0],"m_Weights":[0.5838807303491697,-0.05848073034916904,0.8143520536720779,-0.009080717352410114,0.9843192696508304,0.017356056080891973,-0.7061807428473611,-0.5802807303491696,0.29715222268835059,0.8100192572884348,-0.1360802922723511,0.20193123024954533,0.8745192696508304,-0.6200847712074918,-0.4448807172401953,-0.3418807303491689,0.39871969804400339,0.1502192819866592,0.9625192696508304,0.7601192696508506,0.8864192787275694,0.7129138644392734,0.7271192696508303,0.15701926965083103,-0.43448619493482845,0.5845192696508303,0.2730191097113085,-0.5896856807630447],"m_Output":-0.9999267299963497,"m_DesiredOutput":0.0,"m_Error":9.104189987097946e-10,"m_BackPropagatedError":6.453674040965299e-13},{"m_Bias":1.0,"m_LearnRate":0.5,"m_Inputs":[-1.0,-1.0,-1.0,-1.0,-1.0,-1.0,-1.0,-1.0,-1.0,-1.0,-1.0,-1.0,-1.0,-1.0,-1.0,-1.0,-1.0,-1.0,-1.0,-1.0,-1.0,-1.0,-1.0,-1.0,-1.0,-1.0,-1.0],"m_Weights":[0.5833538706436044,-0.05795387064360425,0.8139087792431315,-0.008553898607235917,0.9848461293563956,0.01690105606564802,-0.7056538389964561,-0.5797538706436044,0.2967083928867955,0.8105461606596897,-0.13555469114305344,0.20154858979157018,0.8750461293563956,-0.6195441796299835,-0.4443538998408344,-0.34135387064360425,0.3992453331165435,0.15074610179144078,0.9630461293563956,0.7606461293563483,0.8869461084366244,0.7134588064363672,0.7276461293563955,0.15754612935639573,-0.4339410543109425,0.5850461293563956,0.2735464947929357,-0.5891420661443091],"m_Output":-0.999928322086193,"m_DesiredOutput":0.0,"m_Error":-2.3067549704455727e-9,"m_BackPropagatedError":-1.5998610717667382e-12},{"m_Bias":1.0,"m_LearnRate":0.5,"m_Inputs":[-1.0,-1.0,-1.0,-1.0,-1.0,-1.0,-1.0,-1.0,-1.0,-1.0,-1.0,-1.0,-1.0,-1.0,-1.0,-1.0,-1.0,-1.0,-1.0,-1.0,-1.0,-1.0,-1.0,-1.0,-1.0,-1.0,-1.0],"m_Weights":[0.5833289449449512,-0.057928944944951207,0.8138878079584113,-0.008528974845932019,0.9848710550550488,0.016879530048169296,-0.7056289112099057,-0.5797289449449512,0.29668739533188767,0.8105710884235543,-0.1355298249887043,0.2015304871012155,0.8750710550550488,-0.6195186044220565,-0.4443289761431662,-0.34132894494495127,0.39927020087628059,0.1507710256028818,0.9630710550550488,0.7606710550549984,0.8869710327165268,0.7134845874328241,0.7276710550550487,0.15757105505504885,-0.43391526391937948,0.5850710550550488,0.27357144534302338,-0.5891163479434062],"m_Output":-0.9999283965447688,"m_DesiredOutput":0.0,"m_Error":-2.4589135145263418e-9,"m_BackPropagatedError":-1.703630193035945e-12},{"m_Bias":1.0,"m_LearnRate":0.5,"m_Inputs":[-1.0,-1.0,-1.0,-1.0,-1.0,-1.0,-1.0,-1.0,-1.0,-1.0,-1.0,-1.0,-1.0,-1.0,-1.0,-1.0,-1.0,-1.0,-1.0,-1.0,-1.0,-1.0,-1.0,-1.0,-1.0,-1.0,-1.0],"m_Weights":[-0.37532069489211036,0.5324206948921104,0.20867281878261505,0.42184826304342479,-0.1086793051078897,-0.23877395319142284,0.1939725284114325,0.42712069489211038,0.5406645019417904,-0.44842803477287337,-0.6599547939242978,-0.24029652865439428,0.2534206948921103,0.42771692604124536,0.9590256638165889,0.9112206948921104,-0.75781849616224,-0.6057740492856878,-0.9793793051078895,-0.46147930511075616,-0.8438829543930272,-0.7863146246530743,-0.9307793051078895,0.8597206948921105,-0.22834800654598223,-0.1250793051078897,-0.003174637566366903,0.6583258994617858],"m_Output":0.5708021424735267,"m_DesiredOutput":0.0,"m_Error":-2.765381354849991e-9,"m_BackPropagatedError":-1.55072950843848e-9},{"m_Bias":1.0,"m_LearnRate":0.5,"m_Inputs":[-1.0,-1.0,-1.0,-1.0,-1.0,-1.0,-1.0,-1.0,-1.0,-1.0,-1.0,-1.0,-1.0,-1.0,-1.0,-1.0,-1.0,-1.0,-1.0,-1.0,-1.0,-1.0,-1.0,-1.0,-1.0,-1.0,-1.0],"m_Weights":[-0.37497282575760196,0.5320728257576017,0.20900034160242857,0.4214971972015351,-0.10902717424239789,-0.23842099999079142,0.19361881006022223,0.42677282575760197,0.5410147627919203,-0.4487816895708641,-0.6601746042978923,-0.23996407981246219,0.25307282575760217,0.4270168022248194,0.9586771435220789,0.9108728257576018,-0.7580423961912598,-0.6061225883202442,-0.9797271742423982,-0.4618271742449443,-0.8442304474983297,-0.7873164870495165,-0.9311271742423982,0.8593728257576018,-0.22935705279876976,-0.12542717424239786,-0.003544868700438058,0.6574510184902772],"m_Output":0.5768160933322319,"m_DesiredOutput":0.0,"m_Error":-2.452778397922322e-9,"m_BackPropagatedError":-1.3591780022600707e-9},{"m_Bias":1.0,"m_LearnRate":0.5,"m_Inputs":[-1.0,-1.0,-1.0,-1.0,-1.0,-1.0,-1.0,-1.0,-1.0,-1.0,-1.0,-1.0,-1.0,-1.0,-1.0,-1.0,-1.0,-1.0,-1.0,-1.0,-1.0,-1.0,-1.0,-1.0,-1.0,-1.0,-1.0],"m_Weights":[-0.3725524484379644,0.5296524484379649,0.21125655911753594,0.4190569902515569,-0.11144755156203552,-0.23599859384885636,0.1911616513048956,0.42435244843796446,0.543415630389361,-0.4512384486865829,-0.6617493522832875,-0.23770089314300855,0.25065244843796466,0.4223215417266076,0.9562529530317977,0.9084524484379649,-0.7596428825183077,-0.6085469380091114,-0.982147551562035,-0.4642475515625749,-0.8466483466998838,-0.7939700649488893,-0.9335475515620351,0.8569524484379649,-0.23605713072591376,-0.12784755156203535,-0.006107417974485741,0.6516347404627022],"m_Output":0.6164030225160733,"m_DesiredOutput":0.0,"m_Error":-4.897825114556652e-10,"m_BackPropagatedError":-2.495737772967814e-10},{"m_Bias":1.0,"m_LearnRate":0.5,"m_Inputs":[-1.0,-1.0,-1.0,-1.0,-1.0,-1.0,-1.0,-1.0,-1.0,-1.0,-1.0,-1.0,-1.0,-1.0,-1.0,-1.0,-1.0,-1.0,-1.0,-1.0,-1.0,-1.0,-1.0,-1.0,-1.0,-1.0,-1.0],"m_Weights":[-0.35886102170428199,0.5159610217042816,0.22360768084691963,0.40529574603653237,-0.12513897829571805,-0.22290656585080496,0.1773323785527415,0.410661021704282,0.5563339335760484,-0.46506622370685876,-0.6716022016444533,-0.22581494088907848,0.23696102170428194,0.39906072794226185,0.9425518700074552,0.8947610217042816,-0.7695925398670356,-0.622249294202586,-0.9958389782957183,-0.4779389782888599,-0.8603286092476209,-0.825577127489771,-0.9472389782957184,0.8432610217042816,-0.26786098941338645,-0.14153897829571814,-0.020354861941071925,0.6238097909271788],"m_Output":0.7820356265166917,"m_DesiredOutput":0.0,"m_Error":6.825879147955207e-9,"m_BackPropagatedError":2.0891611088536978e-9},{"m_Bias":1.0,"m_LearnRate":0.5,"m_Inputs":[-1.0,-1.0,-1.0,-1.0,-1.0,-1.0,-1.0,-1.0,-1.0,-1.0,-1.0,-1.0,-1.0,-1.0,-1.0,-1.0,-1.0,-1.0,-1.0,-1.0,-1.0,-1.0,-1.0,-1.0,-1.0,-1.0,-1.0],"m_Weights":[-0.368944273193053,0.5260442731930533,0.21456480662928482,0.4154250399688342,-0.11505572680694698,-0.23246908627225747,0.18750813387492486,0.420744273193053,0.5469061235015058,-0.4548914734622372,-0.664214527382302,-0.23444944095206014,0.24704427319305317,0.4157588993104024,0.9526407687219973,0.9048442731930533,-0.7621398389109062,-0.6121594198696136,-0.9857557268069467,-0.4678557268050306,-0.8502531875395478,-0.8030978209277885,-0.9371557268069467,0.8533442731930533,-0.2452455171078556,-0.1314557268069469,-0.009894504402167068,0.6436358520485523],"m_Output":0.6688659640082544,"m_DesiredOutput":0.0,"m_Error":1.9236628429116008e-9,"m_BackPropagatedError":8.61795317363671e-10},{"m_Bias":1.0,"m_LearnRate":0.5,"m_Inputs":[-1.0,-1.0,-1.0,-1.0,-1.0,-1.0,-1.0,-1.0,-1.0,-1.0,-1.0,-1.0,-1.0,-1.0,-1.0,-1.0,-1.0,-1.0,-1.0,-1.0,-1.0,-1.0,-1.0,-1.0,-1.0,-1.0,-1.0],"m_Weights":[-0.3788911576695607,0.5359911576695606,0.2052427748211036,0.42545901539042188,-0.10510884233043923,-0.2424971887539781,0.19761501222493306,0.43069115766956075,0.5369604849036624,-0.44478633348615739,-0.6578274175727595,-0.24385903872946455,0.25699115766956079,0.4354236662132,0.9626051074127475,0.9147911576695607,-0.7556408382634954,-0.6021945169905368,-0.9758088423304393,-0.4579088423372729,-0.8403167341184595,-0.7750965728729824,-0.9272088423304393,0.8632911576695607,-0.21704594903676839,-0.12150884233043918,0.0006655557661393507,0.6681090192594722],"m_Output":0.5035727491281762,"m_DesiredOutput":0.0,"m_Error":-6.624333127838042e-9,"m_BackPropagatedError":-4.187629183003976e-9},{"m_Bias":1.0,"m_LearnRate":0.5,"m_Inputs":[-1.0,-1.0,-1.0,-1.0,-1.0,-1.0,-1.0,-1.0,-1.0,-1.0,-1.0,-1.0,-1.0,-1.0,-1.0,-1.0,-1.0,-1.0,-1.0,-1.0,-1.0,-1.0,-1.0,-1.0,-1.0,-1.0,-1.0],"m_Weights":[-0.3702063589240674,0.5273063589240677,0.21341373675486867,0.4166948114924906,-0.11379364107593276,-0.23369460055861469,0.18878503688595589,0.4220063589240674,0.5456950241937234,-0.45361473144470346,-0.6633385612495437,-0.23557317205702575,0.24830635892406723,0.4180055359691196,0.9539040783766314,0.9061063589240678,-0.7612534805355899,-0.6108960003836782,-0.9844936410759322,-0.4665936410748165,-0.8489922263369083,-0.7999940508751805,-0.9358936410759322,0.8546063589240678,-0.24212151688414255,-0.13019364107593268,-0.008573513770236673,0.6463586025359844],"m_Output":0.6513414498214982,"m_DesiredOutput":0.0,"m_Error":1.1357527922394414e-9,"m_BackPropagatedError":5.325206580165831e-10},{"m_Bias":1.0,"m_LearnRate":0.5,"m_Inputs":[-1.0,-1.0,-1.0,-1.0,-1.0,-1.0,-1.0,-1.0,-1.0,-1.0,-1.0,-1.0,-1.0,-1.0,-1.0,-1.0,-1.0,-1.0,-1.0,-1.0,-1.0,-1.0,-1.0,-1.0,-1.0,-1.0,-1.0],"m_Weights":[-0.3755442673630382,0.5326442673630386,0.20846182091873359,0.4220739440902989,-0.10845573263696169,-0.23900153258467606,0.19419994745730682,0.4273442673630382,0.5404385908225812,-0.4482006575210096,-0.659814503409595,-0.2405112965661022,0.25364426736303827,0.4281707639964156,0.9592496710805244,0.9114442673630386,-0.7576755167030786,-0.6055500306654946,-0.9791557326369613,-0.46125573264003907,-0.8436596265575805,-0.7856637689438694,-0.9305557326369613,0.8599442673630386,-0.22769245730003685,-0.1248557326369617,-0.0029363964766082907,0.6588941458342315],"m_Output":0.5668912277604643,"m_DesiredOutput":0.0,"m_Error":-2.971021372974936e-9,"m_BackPropagatedError":-1.6787873427238497e-9},{"m_Bias":1.0,"m_LearnRate":0.5,"m_Inputs":[-1.0,-1.0,-1.0,-1.0,-1.0,-1.0,-1.0,-1.0,-1.0,-1.0,-1.0,-1.0,-1.0,-1.0,-1.0,-1.0,-1.0,-1.0,-1.0,-1.0,-1.0,-1.0,-1.0,-1.0,-1.0,-1.0,-1.0],"m_Weights":[-0.3729527956212291,0.530052795621229,0.2108857878875484,0.41946036076816436,-0.11104720437877067,-0.23639569711633444,0.19156766399478207,0.42475279562122916,0.5430223915401572,-0.4508324975538599,-0.6614838967851651,-0.23806988060814436,0.25105279562122936,0.42307916655760638,0.9566538554617176,0.908852795621229,-0.7593734600552783,-0.6081460063471794,-0.9817472043787709,-0.4638472043796186,-0.8462483941848318,-0.7929038166872804,-0.933147204378771,0.857352795621229,-0.2349835678053252,-0.12744720437877056,-0.005684997841745088,0.6525675587717635],"m_Output":0.6101150929674376,"m_DesiredOutput":0.0,"m_Error":-7.91839817954369e-10,"m_BackPropagatedError":-4.091837269453212e-10},{"m_Bias":1.0,"m_LearnRate":0.5,"m_Inputs":[-1.0,-1.0,-1.0,-1.0,-1.0,-1.0,-1.0,-1.0,-1.0,-1.0,-1.0,-1.0,-1.0,-1.0,-1.0,-1.0,-1.0,-1.0,-1.0,-1.0,-1.0,-1.0,-1.0,-1.0,-1.0,-1.0,-1.0],"m_Weights":[-0.37663958339370609,0.5337395833937069,0.20742185930316227,0.4231802681178405,-0.10736041660629398,-0.24012568132741239,0.19531519936597903,0.4284395833937061,0.5393218438400106,-0.44708562222069728,-0.6591392002967141,-0.24157723573688595,0.254739583393706,0.43044216441470437,0.9603473231785286,0.9125395833937069,-0.7569862837792135,-0.6044523318832579,-0.9780604166062931,-0.46016041661046566,-0.8425655451362514,-0.7823889212976171,-0.9294604166062931,0.8610395833937069,-0.22439366836426126,-0.12376041660629402,-0.0017655296935109766,0.661752020664313],"m_Output":0.5471916803850796,"m_DesiredOutput":0.0,"m_Error":-4.037637738863485e-9,"m_BackPropagatedError":-2.3676919022175819e-9},{"m_Bias":1.0,"m_LearnRate":0.5,"m_Inputs":[-1.0,-1.0,-1.0,-1.0,-1.0,-1.0,-1.0,-1.0,-1.0,-1.0,-1.0,-1.0,-1.0,-1.0,-1.0,-1.0,-1.0,-1.0,-1.0,-1.0,-1.0,-1.0,-1.0,-1.0,-1.0,-1.0,-1.0],"m_Weights":[-0.36701804865453216,0.5241180486545329,0.21631126728549047,0.4134881357857027,-0.11698195134546773,-0.23061402879922456,0.18556104788070749,0.41881804865453217,0.5487378730802163,-0.45683833279145888,-0.6655759212093574,-0.2327574176725348,0.24511804865453225,0.4124135564569345,0.9507129664566817,0.902918048654533,-0.763515875020488,-0.6140873979749546,-0.987681951345467,-0.4697819513424286,-0.8521777698831312,-0.8076817380288203,-0.939081951345467,0.851418048654533,-0.2498586279065513,-0.13338195134546758,-0.011904375662469904,0.6396087838963988],"m_Output":0.694024845538853,"m_DesiredOutput":0.0,"m_Error":3.031708408211828e-9,"m_BackPropagatedError":1.2657399086564842e-9},{"m_Bias":1.0,"m_LearnRate":0.5,"m_Inputs":[-1.0,-1.0,-1.0,-1.0,-1.0,-1.0,-1.0,-1.0,-1.0,-1.0,-1.0,-1.0,-1.0,-1.0,-1.0,-1.0,-1.0,-1.0,-1.0,-1.0,-1.0,-1.0,-1.0,-1.0,-1.0,-1.0,-1.0],"m_Weights":[-0.3791822618921559,0.5362822618921562,0.2049557969900361,0.42575421853976927,-0.10481773810784405,-0.24281148678507476,0.19791328146292629,0.43098226189215596,0.536646859141973,-0.44448814209786977,-0.6576671900715451,-0.24416552483167823,0.25728226189215588,0.43610678121972876,0.9628971993468419,0.9150822618921563,-0.7554756157913078,-0.6019024301730246,-0.9755177381078437,-0.4576177381150746,-0.8400260141080591,-0.774083699835339,-0.9269177381078437,0.8635822618921563,-0.2160251476552294,-0.12121773810784406,0.0009829237053429429,0.6689913469890673],"m_Output":0.497585492091451,"m_DesiredOutput":0.0,"m_Error":-7.009249074756717e-9,"m_BackPropagatedError":-4.4738063670998638e-9},{"m_Bias":1.0,"m_LearnRate":0.5,"m_Inputs":[-1.0,-1.0,-1.0,-1.0,-1.0,-1.0,-1.0,-1.0,-1.0,-1.0,-1.0,-1.0,-1.0,-1.0,-1.0,-1.0,-1.0,-1.0,-1.0,-1.0,-1.0,-1.0,-1.0,-1.0,-1.0,-1.0,-1.0],"m_Weights":[-0.37826835809893047,0.5353683580989307,0.20585220329324273,0.4248279568685549,-0.10573164190106949,-0.24183141860202135,0.19697768987911005,0.43006835809893048,0.5376242640718618,-0.4454234980383524,-0.6581782157928477,-0.24321325342350953,0.2563683580989305,0.4339957812806356,0.9619803569979193,0.9141683580989307,-0.7560017647632652,-0.6028192646146068,-0.9764316419010692,-0.4585316419070999,-0.8409387344135479,-0.7772033022683974,-0.9278316419010693,0.8626683580989307,-0.21916897881219786,-0.12213164190106946,-0.000010795221300965389,0.6662733674431273],"m_Output":0.5160974618839105,"m_DesiredOutput":0.0,"m_Error":-5.844708855685011e-9,"m_BackPropagatedError":-3.619270710854111e-9},{"m_Bias":1.0,"m_LearnRate":0.5,"m_Inputs":[-1.0,-1.0,-1.0,-1.0,-1.0,-1.0,-1.0,-1.0,-1.0,-1.0,-1.0,-1.0,-1.0,-1.0,-1.0,-1.0,-1.0,-1.0,-1.0,-1.0,-1.0,-1.0,-1.0,-1.0,-1.0,-1.0,-1.0],"m_Weights":[-0.3605361633068639,0.5176361633068641,0.22211965565627804,0.40697713944001726,-0.12346383669313595,-0.22447386183827265,0.17902050124177358,0.41233616330686387,0.5547908522584777,-0.4633782420606165,-0.6703349188429433,-0.22721729729380728,0.23863616330686389,0.40171722896309428,0.9442275893508346,0.8964361633068642,-0.7683161160530602,-0.6205734068223283,-0.9941638366931358,-0.4762638366869656,-0.8586546537536079,-0.8220641845075407,-0.9455638366931358,0.8449361633068642,-0.2643278589126451,-0.13986383669313599,-0.0186258503238537,0.6269218557507461],"m_Output":0.7661727378738882,"m_DesiredOutput":0.0,"m_Error":6.139659298094163e-9,"m_BackPropagatedError":2.0057196555425977e-9},{"m_Bias":1.0,"m_LearnRate":0.5,"m_Inputs":[-1.0,-1.0,-1.0,-1.0,-1.0,-1.0,-1.0,-1.0,-1.0,-1.0,-1.0,-1.0,-1.0,-1.0,-1.0,-1.0,-1.0,-1.0,-1.0,-1.0,-1.0,-1.0,-1.0,-1.0,-1.0,-1.0,-1.0],"m_Weights":[-0.37614373862143066,0.5332437386214305,0.2078939948906323,0.4226792933132307,-0.10785626137856908,-0.23961479821015448,0.19481009385732168,0.42794373862143067,0.5398295425608259,-0.4475906271091103,-0.6594423362218418,-0.24109172117640757,0.25424373862143087,0.4294035824512667,0.9598503761079466,0.9120437386214305,-0.7572958891487917,-0.6049492981148502,-0.9785562613785694,-0.4606562613822323,-0.8430608232976703,-0.7838899821507621,-0.9299562613785695,0.8605437386214305,-0.22590577111698346,-0.12425626137856912,-0.0022963709858513519,0.6604423483922447],"m_Output":0.556222894887514,"m_DesiredOutput":0.0,"m_Error":-3.541992561537707e-9,"m_BackPropagatedError":-2.0425577326429188e-9},{"m_Bias":1.0,"m_LearnRate":0.5,"m_Inputs":[-1.0,-1.0,-1.0,-1.0,-1.0,-1.0,-1.0,-1.0,-1.0,-1.0,-1.0,-1.0,-1.0,-1.0,-1.0,-1.0,-1.0,-1.0,-1.0,-1.0,-1.0,-1.0,-1.0,-1.0,-1.0,-1.0,-1.0],"m_Weights":[-0.37865523106411017,0.5357552310641096,0.2054743332791803,0.4252198820312238,-0.10534476893589007,-0.24224396328036766,0.19737346058349934,0.43045523106411018,0.5372130410476641,-0.44502782401015125,-0.6579590714204814,-0.24361288143167995,0.25675523106410999,0.4348775912184288,0.9623684170275892,0.9145552310641096,-0.7557764144151126,-0.6024312050847125,-0.9760447689358903,-0.45814476894241226,-0.8405523544217235,-0.7759039053813118,-0.9274447689358903,0.8630552310641096,-0.21785955821209639,-0.12174476893589008,0.00040893777838356887,0.667405642272648],"m_Output":0.5083619117355028,"m_DesiredOutput":0.0,"m_Error":-6.322275800505931e-9,"m_BackPropagatedError":-3.965580035719809e-9},{"m_Bias":1.0,"m_LearnRate":0.5,"m_Inputs":[-1.0,-1.0,-1.0,-1.0,-1.0,-1.0,-1.0,-1.0,-1.0,-1.0,-1.0,-1.0,-1.0,-1.0,-1.0,-1.0,-1.0,-1.0,-1.0,-1.0,-1.0,-1.0,-1.0,-1.0,-1.0,-1.0,-1.0],"m_Weights":[-0.373217383998377,0.5303173839983774,0.2106402624971737,0.4197269981886625,-0.1107826160016227,-0.23665885683046079,0.19183608000020489,0.425017383998377,0.5427617254190355,-0.45056412313658719,-0.6613094708329048,-0.23831481467846556,0.25131738399837746,0.423583691992363,0.9569188256513044,0.9091173839983774,-0.7591963545212521,-0.6078810173885999,-0.9814826160016226,-0.46358261600267916,-0.8459840697454224,-0.7921922431657406,-0.9328826160016226,0.8576173839983774,-0.23426708432943017,-0.1271826160016225,-0.005405532672617663,0.6531899200232785],"m_Output":0.60590466346656,"m_DesiredOutput":0.0,"m_Error":-9.959733101887266e-10,"m_BackPropagatedError":-5.194422110021717e-10},{"m_Bias":1.0,"m_LearnRate":0.5,"m_Inputs":[-1.0,-1.0,-1.0,-1.0,-1.0,-1.0,-1.0,-1.0,-1.0,-1.0,-1.0,-1.0,-1.0,-1.0,-1.0,-1.0,-1.0,-1.0,-1.0,-1.0,-1.0,-1.0,-1.0,-1.0,-1.0,-1.0,-1.0],"m_Weights":[-0.3640277344386171,0.5211277344386169,0.2190022198671004,0.41048327587065938,-0.11997226556138314,-0.2277644182808454,0.18254177122249405,0.4158277344386171,0.5515487162462044,-0.45985729476540629,-0.6677404372433875,-0.2301760876152543,0.242127734438617,0.4073856601278846,0.947720750817973,0.899927734438617,-0.7657007407849177,-0.6170798997742821,-0.9906722655613831,-0.4727722655567928,-0.8551656869085913,-0.8144918352254337,-0.9420722655613831,0.8484277344386169,-0.2567106839026976,-0.13637226556138302,-0.01501218326418352,0.633611859957998],"m_Output":0.729566504354814,"m_DesiredOutput":0.0,"m_Error":4.567605645716821e-9,"m_BackPropagatedError":1.7054305703117918e-9},{"m_Bias":1.0,"m_LearnRate":0.5,"m_Inputs":[-1.0,-1.0,-1.0,-1.0,-1.0,-1.0,-1.0,-1.0,-1.0,-1.0,-1.0,-1.0,-1.0,-1.0,-1.0,-1.0,-1.0,-1.0,-1.0,-1.0,-1.0,-1.0,-1.0,-1.0,-1.0,-1.0,-1.0],"m_Weights":[-0.3774976224139336,0.5345976224139337,0.2065988850382534,0.4240478377802668,-0.10650237758606625,-0.24101850849192656,0.19619030947192918,0.4292976224139336,0.5384337942967721,-0.4462106975964142,-0.6586257786776317,-0.24243049480821786,0.2555976224139338,0.432284686656534,0.9612074709504952,0.9133976224139337,-0.7564609424108627,-0.6035921601214355,-0.9772023775860662,-0.45930237759117806,-0.8417085197080213,-0.7797100960833623,-0.9286023775860662,0.8618976224139338,-0.2216948425365122,-0.12290237758606625,-0.0008434289913867859,0.6640882566357195],"m_Output":0.5310959005481806,"m_DesiredOutput":0.0,"m_Error":-4.952095565448572e-9,"m_BackPropagatedError":-2.98876487912042e-9},{"m_Bias":1.0,"m_LearnRate":0.5,"m_Inputs":[-1.0,-1.0,-1.0,-1.0,-1.0,-1.0,-1.0,-1.0,-1.0,-1.0,-1.0,-1.0,-1.0,-1.0,-1.0,-1.0,-1.0,-1.0,-1.0,-1.0,-1.0,-1.0,-1.0,-1.0,-1.0,-1.0,-1.0],"m_Weights":[-0.368665190334679,0.525765190334679,0.21481857641312997,0.41514433561525668,-0.11533480966532113,-0.23219922569601554,0.1872259044305379,0.420465190334679,0.5471726999221527,-0.4551736687181706,-0.664410011365601,-0.23420265584841117,0.246765190334679,0.4152682699080114,0.952361436923981,0.904565190334679,-0.7623375306062884,-0.6124387765920017,-0.986034809665321,-0.468134809663235,-0.8505320271485141,-0.8037728728637184,-0.937434809665321,0.853065190334679,-0.24592491860689906,-0.1317348096653211,-0.010186150647065863,0.6430432551385581],"m_Output":0.6726275482221124,"m_DesiredOutput":0.0,"m_Error":2.0908865805229029e-9,"m_BackPropagatedError":9.272600035346465e-10},{"m_Bias":1.0,"m_LearnRate":0.5,"m_Inputs":[-1.0,-1.0,-1.0,-1.0,-1.0,-1.0,-1.0,-1.0,-1.0,-1.0,-1.0,-1.0,-1.0,-1.0,-1.0,-1.0,-1.0,-1.0,-1.0,-1.0,-1.0,-1.0,-1.0,-1.0,-1.0,-1.0,-1.0],"m_Weights":[-0.37549711373423008,0.5325971137342299,0.20850635607773949,0.42202634211022135,-0.10850288626576993,-0.23895348430124467,0.19415197668867099,0.42729711373423009,0.5404862914089804,-0.4482486194112142,-0.6598440267142638,-0.2404659257966518,0.2535971137342301,0.42807478583805777,0.9592024246523339,0.9113971137342299,-0.7577056111951963,-0.6055972794421071,-0.97920288626577,-0.46130288626880247,-0.8437067283929479,-0.785801506929803,-0.93060288626577,0.85989711373423,-0.22783119031917047,-0.12490288626576987,-0.002986663739153787,0.6587738976508023],"m_Output":0.5677190967626039,"m_DesiredOutput":0.0,"m_Error":-2.9273322848309974e-9,"m_BackPropagatedError":-1.6514470690184135e-9},{"m_Bias":1.0,"m_LearnRate":0.5,"m_Inputs":[-1.0,-1.0,-1.0,-1.0,-1.0,-1.0,-1.0,-1.0,-1.0,-1.0,-1.0,-1.0,-1.0,-1.0,-1.0,-1.0,-1.0,-1.0,-1.0,-1.0,-1.0,-1.0,-1.0,-1.0,-1.0,-1.0,-1.0],"m_Weights":[-0.37903660414886528,0.5361366041488653,0.20509957018579087,0.4256064895355817,-0.10496339585113462,-0.24265396012031219,0.19776400658497265,0.43083660414886529,0.5368040713151109,-0.44463737767474006,-0.6577470469955989,-0.24401177737931649,0.25713660414886538,0.43576364855983049,0.9627510409051197,0.9149366041488654,-0.7555579941797339,-0.6020485857248857,-0.9756633958511346,-0.4577633958581649,-0.8401714787180881,-0.7745928842178496,-0.9270633958511346,0.8634366041488654,-0.21653832523355408,-0.12136339585113462,0.0008240201188482905,0.6685478061997223],"m_Output":0.5005922560954433,"m_DesiredOutput":0.0,"m_Error":-6.81490795071832e-9,"m_BackPropagatedError":-4.328876685988028e-9}],"m_OutputLayer":[{"m_Bias":1.0,"m_LearnRate":0.5,"m_Inputs":[-0.9999291384581796,-0.9999279753437357,-0.9999287339778071,-0.9999267623915229,-0.9999262996300066,-0.9999278934110629,-0.9999287534118743,-0.9999291960582596,-0.9999254717317793,-0.9999246622691512,-0.9999262928090607,-0.9999281137925126,-0.999928743878826,-0.999930677756284,-0.9999305069133905,-0.9999242823479656,-0.9999248667852375,-0.9999234107580386,-0.9999254219165568,-0.9999239419889304,-0.9999241429532739,-0.9999236017097601,-0.9999303223873385,-0.9999262871244694,-0.9999267006026124,-0.999927157914742,-0.9999295787742708,-0.9999289672117996,-0.9999303987636787,-0.9999253313998843,-0.9999279182599636,-0.9999282039776335,-0.9999308360806697,-0.9999272690959227,-0.9999286459098409,-0.9999276794402372,-0.9999265893301005,-0.9999289858529882,-0.9999294412582422,-0.9999259498347277,-0.9999246545263469,-0.999928391386704,-0.9999262780282352,-0.9999254027482223,-0.9999286470113444,-0.9999291986091067,-0.9999305788030901,-0.9999292368610742,-0.999926192697856,-0.9999308286002954,-0.9999296215359746,-0.9999301287509336,-0.9999240052607327,-0.9999251477373243,-0.9999249991030109,-0.9999288995517938,-0.9999285069878122,-0.9999258866162756,-0.9999234087911011,-0.9999300214691886,-0.9999291814802732,-0.9999306288327169,-0.9999296418208147,-0.9999234886092279,-0.9999277099390699,-0.9999289946236635,-0.9999281149020157,-0.9999248965090031,-0.9999255234286709,-0.9999263367554844,-0.9999286605951926,-0.9999268226244981,-0.9999249227490393,-0.9999303431927356,-0.9999301819722495,-0.9999267299963497,-0.999928322086193,-0.9999283965447688,0.5708021424735267,0.5768160933322319,0.6164030225160733,0.7820356265166917,0.6688659640082544,0.5035727491281762,0.6513414498214982,0.5668912277604643,0.6101150929674376,0.5471916803850796,0.694024845538853,0.497585492091451,0.5160974618839105,0.7661727378738882,0.556222894887514,0.5083619117355028,0.60590466346656,0.729566504354814,0.5310959005481806,0.6726275482221124,0.5677190967626039,0.5005922560954433],"m_Weights":[-0.3717362807209737,0.5288361697866658,0.21243616978463573,0.4182361697859893,-0.11226383021775438,-0.2347638302187377,0.19033616978448288,0.4235361697860226,0.5446361697867596,-0.452063830220593,-0.6622638302225243,-0.23656383021875256,0.24983616978489094,0.42093616978600648,0.9554361697889426,0.9076361697887136,-0.7601638302234698,-0.6093638302220257,-0.982963830225732,-0.46506383022070865,-0.8474638302243381,-0.795963830223823,-0.9343638302252253,0.8561361697884595,-0.23806383021876494,-0.12866383021788334,-0.006963830216944943,0.6499361697873655,0.4819361697863835,0.8774361697885657,-0.4886638302209199,0.19703616978452946,0.27423616978505546,0.9998361697891499,0.022736169783277365,0.39423616978583828,0.13273616978407799,-0.1581638302181176,0.4870361697864144,0.6120361697871515,-0.32686383021950668,-0.6642638302225433,0.3250361697853919,-0.24046383021878463,-0.4700638302207533,0.39453616978584019,0.5453361697867633,0.9277361697888108,0.5558361697868254,-0.26296383021897015,0.9977361697891399,0.6617361697874311,0.8022361697881856,-0.831263830224175,-0.5364638302213521,-0.5750638302217075,0.4634361697862704,0.356436169785596,-0.3434638302196481,-0.9834638302257374,0.7724361697880303,0.5406361697867355,0.9417361697888773,0.6673361697874622,-0.9631638302255242,0.14093616978413629,0.4894361697864288,0.2501361697848932,-0.6016638302219537,-0.43856383022047376,-0.22496383021865755,0.39823616978586348,-0.09626383021762927,-0.5948638302218905,0.8619361697884886,0.8170361697882614,-0.12086383021782192,0.3062361697852681,0.32643616978540115,0.36712170474929836,0.3256217037260344,0.06502170140604535,-0.9061782174969105,-0.25537828992150959,0.8794217293209893,-0.15077829433710286,0.3944217055119254,0.10512170126826227,0.5360217105449606,-0.4024782807680789,0.9305217328062946,0.7759217227767457,-0.8150782331566482,0.47022170798761528,0.8393217267017679,0.13222170128242206,-0.6063782616571815,0.6574217161920427,-0.27757828876800219,0.388621705344061,0.9047217310262556],"m_Output":-0.9999800384624636,"m_DesiredOutput":-1.0,"m_Error":-0.00006137112871007488,"m_BackPropagatedError":-7.532599729132757e-9},{"m_Bias":1.0,"m_LearnRate":0.5,"m_Inputs":[-0.9999291384581796,-0.9999279753437357,-0.9999287339778071,-0.9999267623915229,-0.9999262996300066,-0.9999278934110629,-0.9999287534118743,-0.9999291960582596,-0.9999254717317793,-0.9999246622691512,-0.9999262928090607,-0.9999281137925126,-0.999928743878826,-0.999930677756284,-0.9999305069133905,-0.9999242823479656,-0.9999248667852375,-0.9999234107580386,-0.9999254219165568,-0.9999239419889304,-0.9999241429532739,-0.9999236017097601,-0.9999303223873385,-0.9999262871244694,-0.9999267006026124,-0.999927157914742,-0.9999295787742708,-0.9999289672117996,-0.9999303987636787,-0.9999253313998843,-0.9999279182599636,-0.9999282039776335,-0.9999308360806697,-0.9999272690959227,-0.9999286459098409,-0.9999276794402372,-0.9999265893301005,-0.9999289858529882,-0.9999294412582422,-0.9999259498347277,-0.9999246545263469,-0.999928391386704,-0.9999262780282352,-0.9999254027482223,-0.9999286470113444,-0.9999291986091067,-0.9999305788030901,-0.9999292368610742,-0.999926192697856,-0.9999308286002954,-0.9999296215359746,-0.9999301287509336,-0.9999240052607327,-0.9999251477373243,-0.9999249991030109,-0.9999288995517938,-0.9999285069878122,-0.9999258866162756,-0.9999234087911011,-0.9999300214691886,-0.9999291814802732,-0.9999306288327169,-0.9999296418208147,-0.9999234886092279,-0.9999277099390699,-0.9999289946236635,-0.9999281149020157,-0.9999248965090031,-0.9999255234286709,-0.9999263367554844,-0.9999286605951926,-0.9999268226244981,-0.9999249227490393,-0.9999303431927356,-0.9999301819722495,-0.9999267299963497,-0.999928322086193,-0.9999283965447688,0.5708021424735267,0.5768160933322319,0.6164030225160733,0.7820356265166917,0.6688659640082544,0.5035727491281762,0.6513414498214982,0.5668912277604643,0.6101150929674376,0.5471916803850796,0.694024845538853,0.497585492091451,0.5160974618839105,0.7661727378738882,0.556222894887514,0.5083619117355028,0.60590466346656,0.729566504354814,0.5310959005481806,0.6726275482221124,0.5677190967626039,0.5005922560954433],"m_Weights":[-0.41420774398681239,0.5706879951292638,0.2542881275571959,0.4600880414251891,-0.07041173658433295,-0.19291168534024384,0.2321881368055014,0.46538803920678487,0.5864879885151445,-0.4102115944548876,-0.6204115065578121,-0.19471168458731598,0.29168811190575358,0.4627880402950602,0.9972878165114739,0.9494878365291525,-0.7183114656263031,-0.5675115286767034,-0.941111372489596,-0.4232115890182834,-0.8056114291299688,-0.7541114506594961,-0.8925113928040092,0.8979878580952488,-0.1962116839598773,-0.08681172972353732,0.034888219361667607,0.6917879444323052,0.5237880147617036,0.9192878491758125,-0.44681157914893557,0.23888813400173784,0.3160881016943378,1.0416877979167927,0.06458820693534506,0.43608805147064785,0.1745881609087254,-0.11631171738275399,0.528888012626877,0.6538879602993107,-0.285011646817173,-0.622411505721582,0.36688808043370865,-0.19861168295597693,-0.42821158692730057,0.4363880513450807,0.5871879882221108,0.9695878281117926,0.5976879838265909,-0.22111167354453058,1.0395877987962899,0.7035879394920592,0.8440878806651829,-0.7894114359022452,-0.4946115591600351,-0.5332115430190654,0.5052880225055905,0.3982880672917578,-0.301611639874194,-0.9416113722806047,0.8142878931430306,0.5824879901896142,0.9835878222488557,0.7091879371475158,-0.9213113807657196,0.18278815747744807,0.5312880116222494,0.29198811178020497,-0.5598115318963751,-0.3967116001006665,-0.1831116894395407,0.44008804979642127,-0.054411743277900329,-0.5530115347397412,0.9037878556665012,0.8588878744679931,-0.07901173298658475,0.3480880883019407,0.3682880798477704,0.32967572637695488,0.2882507213978498,0.028154895465005354,-0.9405230211327106,-0.2915373606128804,0.8411542854242725,-0.1871800094323274,0.35692714088250729,0.06817340748609868,0.49828433300560295,-0.4382753930193676,0.892181916543247,0.7378058227958732,-0.8497129539502284,0.4325952789961165,0.8011121973156237,0.09521916945862667,-0.6416299480480954,0.6194878513553851,-0.3136843225146844,0.35113741391219757,0.8664182570218152],"m_Output":-0.9999999898961313,"m_DesiredOutput":-1.0,"m_Error":-2.7045665373925943e-8,"m_BackPropagatedError":-1.4629360100180492e-15}],"m_DesiredOutputs":[-1.0,-1.0,0.0]}